tree
version=v4
num_class=1
num_tree_per_iteration=1
label_index=0
max_feature_idx=3
objective=regression
feature_names=Open High Low Volume
feature_infos=[68.5:8205.7399999999998] [74.560000000000002:8348.6599999999999] [65.530000000000001:8075.4700000000003] [0:8957350000]
tree_sizes=2609 2657 2659 2665 2655 2643 2644 2644 2632 2632 2650 2643 2626 2641 2633 2638 2630 2635 2622 2634 2635 2625 2609 2639 2638 2622 2636 2629 2629 2632 2625 2637 2632 2632 2642 2646 2647 2640 2653 2649 2657 2664 2665 2667 2672 2672 2670 2686 2684 2678 2694 2689 2683 2685 2687 2698 2700 2700 2702 2713 2738 2737 2729 2739 2727 2742 2749 2750 2752 2744 2754 2757 2754 2758 2753 2779 2772 2761 2748 2773 2783 2764 2794 2772 2792 2783 2791 2784 2788 2784 2787 2786 2798 2796 2808 2790 2800 2785 2788 2808

Tree=0
num_leaves=31
num_cat=0
split_feature=0 2 0 0 2 0 3 0 0 0 0 0 0 0 0 0 2 0 0 0 0 0 0 0 0 0 0 1 0 0
split_gain=2.0501e+09 2.95955e+08 1.16746e+08 6.99208e+07 3.16623e+07 3.01955e+07 1.03676e+07 5.05193e+06 4.39738e+06 3.64655e+06 3.4608e+06 3.12625e+06 1.2507e+06 601813 540828 516914 182770 180649 121615 109386 102411 89927 75427.3 69477.1 67227.6 52041.1 45644 45293.2 20289.5 16569.5
threshold=2394.2950000000005 4986.7200000000003 758.13000000000011 3617.1500000000005 1469.1050000000002 393.72500000000008 2763655000.0000005 532.6500000000002 1012.8500000000001 199.19000000000003 4229.8450000000012 2729.9150000000004 310.87000000000006 641.23000000000013 1154.7300000000002 881.55500000000018 2513.4050000000002 462.26500000000004 254.28500000000003 695.37000000000012 1216.9550000000002 598.83500000000015 353.99500000000006 935.44000000000017 812.7750000000002 118.93000000000002 429.79000000000002 1101.7950000000003 136.07000000000002 496.19000000000005
decision_type=2 2 2 2 2 2 2 2 2 2 2 2 2 2 2 2 2 2 2 2 2 2 2 2 2 2 2 2 2 2
left_child=2 3 5 11 8 9 -3 17 15 25 -5 16 18 21 27 24 -2 26 -11 -15 -16 -9 -14 -17 -4 -1 -7 -10 -27 -19
right_child=1 6 4 10 -6 7 -8 13 14 12 -12 -13 22 19 20 23 -18 29 -20 -21 -22 -23 -24 -25 -26 28 -28 -29 -30 -31
leaf_value=802.4762281235146 1043.8660614878881 1395.407035830928 870.35067436753593 1192.6122498608759 990.89164553584783 833.84037996726045 1496.0089669832719 850.09833317849723 896.44237513091025 815.61738355180341 1241.057893606386 1095.3990141837926 825.44290994155858 858.66035909346056 910.61913696618194 883.04064542463732 1057.0744638094436 840.18308310701616 819.80591975949937 864.82326167117867 919.95711987368441 854.24005316827208 829.80914874730843 890.25922027917022 876.42059500970424 805.03210257416083 836.8555387148391 903.01766205163108 808.57036835045926 843.44679766302897
leaf_weight=92 22 20 37 30 37 91 21 101 22 204 29 24 70 72 24 30 20 35 105 48 23 109 91 24 36 71 112 20 21 28
leaf_count=92 22 20 37 30 37 91 21 101 22 204 29 24 70 72 24 30 20 35 105 48 23 109 91 24 36 71 112 20 21 28
internal_value=880.301 1213.79 843.468 1137.32 905.417 830.929 1446.93 847.21 890.776 816.092 1216.42 1066.61 820.764 855.476 907.82 878.831 1050.16 836.956 817.041 861.126 915.189 852.248 827.911 886.249 873.344 804.158 835.504 899.573 805.84 841.634
internal_weight=1669 166 1503 125 253 1250 41 596 216 654 59 66 470 330 89 127 42 266 309 120 47 210 161 54 73 184 203 42 92 63
internal_count=1669 166 1503 125 253 1250 41 596 216 654 59 66 470 330 89 127 42 266 309 120 47 210 161 54 73 184 203 42 92 63
is_linear=0
shrinkage=1


Tree=1
num_leaves=31
num_cat=0
split_feature=0 2 0 0 0 1 3 0 0 0 0 0 0 0 0 0 0 0 0 0 0 0 0 0 0 0 0 0 0 0
split_gain=1.66161e+09 2.50249e+08 8.56172e+07 6.22944e+07 2.27158e+07 2.01356e+07 8.39776e+06 4.82259e+06 4.25706e+06 3.91104e+06 2.74593e+06 1.23966e+06 842658 579055 430364 310408 175909 87145.5 86917.5 61664.7 56500 48567.8 46394.6 42651.2 36719.7 34983.3 32958.7 32347.7 17473.3 13161.2
threshold=2304.6100000000001 4986.7200000000003 729.06000000000006 3299.7250000000008 383.98500000000007 1483.3350000000003 2763655000.0000005 4127.2250000000013 982.81500000000017 532.6500000000002 199.19000000000003 2661.9900000000002 293.91000000000003 1129.1450000000002 850.18500000000006 629.2600000000001 451.39500000000004 252.42500000000004 1216.9550000000002 787.93000000000018 345.52500000000003 672.37000000000012 591.43500000000006 115.81000000000002 1042.9500000000003 418.15000000000003 489.01500000000004 911.96000000000015 136.07000000000002 230.77500000000003
decision_type=2 2 2 2 2 2 2 2 2 2 2 2 2 2 2 2 2 2 2 2 2 2 2 2 2 2 2 2 2 2
left_child=2 3 4 11 10 8 -3 -5 14 16 23 -2 17 24 19 22 25 29 -15 -4 -14 -17 -11 -1 -10 -6 -18 -16 -25 -12
right_child=1 6 5 7 9 -7 -8 -9 13 15 12 -13 20 18 27 21 26 -19 -20 -21 -22 -23 -24 28 -26 -27 -28 -29 -30 -31
leaf_value=-70.17142377068015 145.93692321777345 463.59582275390625 -10.992786096066846 260.76756184895834 -42.943716038295207 91.539098834991464 554.13759649367557 317.2091576552973 12.119731267293295 -27.53673683993788 -59.306413209593146 173.46087402343753 -50.077847726004471 26.615815633138023 0.54290420899788538 -20.717917415073941 -37.315888274662079 -54.719078252883186 34.891105790571736 -5.5417561848958341 -46.116226850237169 -16.553106035505021 -24.31607621969636 -67.806913639948917 17.651434644063315 -40.126379933076748 -33.488577532087056 5.4684233188629152 -64.557179768880218 -57.631296335856121
leaf_weight=85 36 20 49 24 70 32 21 41 24 83 77 30 63 30 30 84 63 105 22 36 84 42 97 78 24 119 35 24 21 120
leaf_count=85 36 20 49 24 70 32 21 41 24 83 77 30 63 30 30 84 63 105 22 36 84 42 97 78 24 119 35 24 21 120
internal_value=1.07262e-07 294.363 -33.8212 226.882 -45.0649 17.0451 509.971 296.369 7.07099 -31.0014 -58.2397 158.448 -54.0234 22.8059 -4.24907 -23.1364 -39.3871 -57.0459 30.1169 -8.68411 -47.8141 -19.3296 -25.8012 -68.5283 14.8856 -41.1698 -35.949 2.73202 -67.1176 -58.286
internal_weight=1669 172 1497 131 1226 271 41 65 239 593 633 66 449 100 139 306 287 302 52 85 147 126 180 184 48 189 98 54 99 197
internal_count=1669 172 1497 131 1226 271 41 65 239 593 633 66 449 100 139 306 287 302 52 85 147 126 180 184 48 189 98 54 99 197
is_linear=0
shrinkage=0.1


Tree=2
num_leaves=31
num_cat=0
split_feature=2 2 0 0 0 0 3 0 0 0 0 0 0 0 0 0 0 1 0 0 0 0 0 0 0 0 0 0 0 0
split_gain=1.34624e+09 2.04054e+08 6.81712e+07 5.10788e+07 1.80845e+07 1.56121e+07 6.80218e+06 3.9063e+06 3.78802e+06 3.32952e+06 2.06024e+06 1.03591e+06 569370 517937 382177 250483 152747 98436.5 59432.9 48338.1 46097 44151 38562.7 35934.7 33747.4 30587.6 29742.9 25626 12561.6 10083.8
threshold=2180.8600000000001 4986.7200000000003 713.44000000000017 3299.7250000000008 376.82500000000005 1515.7950000000003 2763655000.0000005 4127.2250000000013 982.81500000000017 521.61500000000012 176.75000000000003 2661.9900000000002 286.69000000000005 1129.1450000000002 834.90500000000009 619.70000000000016 439.66500000000008 1247.8750000000002 244.74500000000003 334.63500000000005 778.60500000000013 662.8850000000001 902.96500000000015 577.67000000000019 473.75500000000005 405.03500000000008 1042.9500000000003 110.50000000000001 221.12500000000003 266.98500000000007
decision_type=2 2 2 2 2 2 2 2 2 2 2 2 2 2 2 2 2 2 2 2 2 2 2 2 2 2 2 2 2 2
left_child=2 3 4 11 10 8 -3 -5 14 16 27 -2 18 26 20 23 25 -15 28 -14 -4 -17 -16 -11 -18 -6 -10 -1 -12 -20
right_child=1 6 5 7 9 -7 -8 -9 13 15 12 -13 19 17 22 21 24 -19 29 -21 -22 -23 -24 -25 -26 -27 -28 -29 -30 -31
leaf_value=-63.396072086817789 131.10916352143158 417.23625244140624 -10.506167586968871 234.69080251057946 -39.865801239013678 83.749828575397373 498.72382812500001 285.48824194931404 10.907758204142254 -26.06913287353516 -54.681080627441411 156.11479125976564 -45.931578717912949 24.398914292279414 -0.62132538735866549 -19.469552849663629 -34.63800274076916 33.240305633544921 -50.643818882533481 -42.196555794059464 -5.7931758774651421 -15.852680234555846 4.4490273157755533 -22.849348409196974 -31.335765791912468 -37.003438622610915 15.886291122436525 -60.941108271760768 -52.379624102192544 -48.73109355070153
leaf_weight=71 37 20 49 24 56 29 21 41 24 50 28 30 63 34 30 90 84 20 63 77 36 54 30 113 49 112 24 106 155 49
leaf_count=71 37 20 49 24 56 29 21 41 24 50 28 30 63 34 30 90 84 20 63 77 36 54 30 113 49 112 24 106 155 49
internal_value=3.82377e-08 264.104 -30.5414 203.576 -40.6948 14.3393 458.974 266.732 6.18988 -28.4797 -52.8301 142.306 -49.129 20.9552 -4.19673 -21.1522 -35.9532 27.6735 -51.6213 -43.8773 -8.51008 -18.1132 1.91385 -23.837 -33.4214 -37.9576 13.397 -61.9259 -52.7318 -49.807
internal_weight=1669 173 1496 132 1220 276 41 65 247 608 612 67 435 102 145 307 301 54 295 140 85 144 60 163 133 168 48 177 183 112
internal_count=1669 173 1496 132 1220 276 41 65 247 608 612 67 435 102 145 307 301 54 295 140 85 144 60 163 133 168 48 177 183 112
is_linear=0
shrinkage=0.1


Tree=3
num_leaves=31
num_cat=0
split_feature=0 0 0 0 0 0 2 0 0 1 0 0 0 0 0 0 0 0 0 0 0 0 0 0 0 0 0 0 0 0
split_gain=1.09117e+09 1.71427e+08 5.07296e+07 3.87919e+07 2.04869e+07 1.39431e+07 9.34988e+06 3.01885e+06 2.65938e+06 2.42503e+06 1.53731e+06 1.00393e+06 360334 358247 341719 156035 150498 46062 39775.5 37925.6 37023.3 36911.5 31761.3 29976.4 27295.1 25745.1 20916.6 18906.2 8787.83 7665.56
threshold=2193.9150000000004 4658.1400000000012 695.37000000000012 3299.7250000000008 6123.4350000000013 370.33500000000009 1286.8350000000003 967.30000000000007 521.61500000000012 4209.2200000000012 176.75000000000003 2590.9150000000004 1108.8750000000002 281.67500000000007 822.85000000000002 610.78000000000009 435.22500000000008 750.25000000000011 881.55500000000018 240.65000000000003 323.68000000000006 1191.5650000000003 473.75500000000005 405.03500000000008 649.2600000000001 566.78000000000009 108.51500000000001 1034.2850000000001 215.76500000000001 586.50000000000011
decision_type=2 2 2 2 2 2 2 2 2 2 2 2 2 2 2 2 2 2 2 2 2 2 2 2 2 2 2 2 2 2
left_child=2 3 5 11 -3 10 7 14 16 -5 26 -2 27 19 17 25 23 -4 -16 28 -15 -14 -18 -7 -17 -10 -1 -9 -12 -27
right_child=1 4 6 9 -6 8 -8 12 15 -11 13 -13 21 20 18 24 22 -19 -20 -21 -22 -23 -24 -25 -26 29 -28 -29 -30 -31
leaf_value=-57.177748775482179 114.78871188693577 336.36273905436201 -11.633776546659924 209.04690274325287 469.96083318536932 -36.09772390390372 61.570306593371981 8.6710428237915043 -24.979276965913318 250.7656397769326 -49.526301066080734 138.40518358018662 20.305608011881514 -42.278968865530835 -2.4415970302124821 -18.360582165840345 -31.320336820641344 -7.1207339461968875 2.4886409997940064 -45.266648467248231 -38.899691217595887 25.630298913043482 -28.202189885353558 -33.461088250607865 -15.59743125221946 -22.045446937962584 -54.915176148541207 12.640318934122723 -47.333602126101233 -20.467807075158873
leaf_weight=64 36 24 42 22 22 77 31 24 21 38 21 36 30 56 30 78 98 49 36 119 77 23 49 98 66 57 113 24 141 67
leaf_count=64 36 24 42 22 22 77 31 24 21 38 21 36 30 56 30 78 98 49 36 119 77 23 49 98 66 57 113 24 141 67
internal_value=-1.62351e-07 234.017 -27.9376 176.084 400.257 -36.9822 9.68037 3.44553 -26.3896 235.469 -47.9332 126.597 16.9321 -44.5984 -5.23052 -19.4258 -32.6398 -9.20368 0.247624 -46.6221 -40.3225 22.6163 -30.281 -34.6212 -17.0941 -21.7414 -55.7333 10.6557 -47.6178 -21.193
internal_weight=1669 178 1491 132 46 1202 289 258 611 60 591 72 101 414 157 289 322 91 66 281 133 53 147 175 144 145 177 48 162 124
internal_count=1669 178 1491 132 46 1202 289 258 611 60 591 72 101 414 157 289 322 91 66 281 133 53 147 175 144 145 177 48 162 124
is_linear=0
shrinkage=0.1


Tree=4
num_leaves=31
num_cat=0
split_feature=2 0 0 0 0 0 3 0 0 0 0 1 0 0 0 0 0 0 0 0 0 0 0 0 0 0 0 0 0 0
split_gain=8.83951e+08 1.40589e+08 4.0409e+07 3.67555e+07 1.1112e+07 7.12286e+06 5.17526e+06 2.59536e+06 2.1453e+06 1.86592e+06 1.80462e+06 1.21038e+06 305975 304325 301035 268801 129460 116888 41160.6 35991.6 34888.8 32644.2 28945.5 24753.8 23916.4 20066.3 18571.3 16129.9 15314 6977.47
threshold=2063.0350000000003 5494.380000000001 683.72000000000014 3617.1500000000005 365.46500000000009 1317.7900000000002 2763655000.0000005 967.30000000000007 511.01000000000005 2729.9150000000004 4336.9350000000004 181.15000000000001 2517.1400000000008 812.7750000000002 1108.8750000000002 275.8300000000001 609.7600000000001 425.75500000000005 867.26500000000021 741.43000000000018 314.92500000000007 1191.5650000000003 566.78000000000009 237.30000000000004 459.38000000000005 639.86000000000001 400.08500000000004 104.97500000000001 1034.2850000000001 215.76500000000001
decision_type=2 2 2 2 2 2 2 2 2 2 2 2 2 2 2 2 2 2 2 2 2 2 2 2 2 2 2 2 2 2
left_child=2 3 4 9 11 7 -3 13 17 12 -5 27 -2 19 28 23 22 26 -15 -4 -17 -16 -10 29 -19 -18 -6 -1 -9 -13
right_child=1 6 5 10 8 -7 -8 14 16 -11 -12 15 -14 18 21 20 25 24 -20 -21 -22 -23 -24 -25 -26 -27 -28 -29 -30 -31
leaf_value=-51.755935170699139 99.289368896484376 339.20440551757815 -10.978207342965263 207.27135959201388 -32.680257068980829 55.042928866682388 411.14371459960944 7.8039385318756107 -22.72348234994071 140.87740071614584 242.67208048502604 -44.629802538001023 114.26874918619792 -2.9580244731903078 18.275047709147138 -38.658526284354082 -16.787616517808704 -28.611642210824147 1.8917528760575113 -6.9888920998086732 -35.436169833228703 23.223096084594729 -19.147077204817432 -41.11379214309332 -26.080597877502441 -14.426690355936685 -30.48395873230773 -49.617718336317274 11.376286951700848 -42.72716628643645
leaf_weight=49 25 20 42 36 77 29 20 24 28 24 24 23 30 30 30 56 72 112 42 49 84 24 118 127 56 72 77 126 24 119
leaf_count=49 25 20 42 36 77 29 20 24 28 24 24 23 30 30 30 56 72 112 42 49 84 24 118 127 56 72 77 126 24 119
internal_value=2.93118e-07 209.968 -25.2243 162.426 -33.3893 7.99098 375.174 2.8419 -23.9734 117.612 221.432 -43.2566 107.46 -4.98667 15.3523 -40.2787 -17.7346 -29.5921 -0.128988 -8.83011 -36.7251 20.4742 -19.833 -42.1281 -27.768 -15.6072 -31.5821 -50.2164 9.59011 -43.0353
internal_weight=1669 179 1490 139 1196 294 40 265 612 79 60 584 55 163 102 409 290 322 72 91 140 54 146 269 168 144 154 175 48 142
internal_count=1669 179 1490 139 1196 294 40 265 612 79 60 584 55 163 102 409 290 322 72 91 140 54 146 269 168 144 154 175 48 142
is_linear=0
shrinkage=0.1


Tree=5
num_leaves=31
num_cat=0
split_feature=0 0 0 1 0 1 3 0 0 0 0 0 0 0 0 0 0 0 0 0 0 0 0 0 0 0 0 0 0 0
split_gain=7.16311e+08 1.1309e+08 3.3233e+07 2.9461e+07 9.14895e+06 6.36814e+06 4.19196e+06 2.41165e+06 1.78837e+06 1.69216e+06 1.15309e+06 980594 294165 266839 222706 215812 114378 94950.2 46728.4 38244 31208.8 29275.2 26271 24947.1 22364.5 18817.8 16649.1 16575 15374 8298.25
threshold=2193.9150000000004 5494.380000000001 695.37000000000012 3706.5850000000005 365.46500000000009 1754.6450000000002 2763655000.0000005 982.81500000000017 511.01000000000005 4229.8450000000012 2729.9150000000004 176.75000000000003 1154.7300000000002 829.2850000000002 2517.1400000000008 279.10500000000008 613.92500000000007 429.79000000000002 1232.0400000000002 768.2850000000002 1048.9500000000003 896.22500000000002 549.29000000000008 319.92000000000007 242.97500000000002 473.75500000000005 400.08500000000004 651.46500000000003 121.63000000000001 585.24000000000012
decision_type=2 2 2 2 2 2 2 2 2 2 2 2 2 2 2 2 2 2 2 2 2 2 2 2 2 2 2 2 2 2
left_child=2 3 4 10 11 7 -3 13 17 -5 14 28 20 19 -2 24 22 26 -14 -4 -9 -15 -10 -17 -13 -19 -6 -18 -1 -24
right_child=1 6 5 9 8 -7 -8 12 16 -11 -12 15 18 21 -16 23 27 25 -20 -21 -22 -23 29 -25 -26 -27 -28 -29 -30 -31
leaf_value=-45.971872379803898 89.917891184488937 305.28396728515628 -8.9808319656937226 181.85222854614258 -29.41223033558239 62.251670227050788 370.02933593750004 8.1857697041829436 -20.995189049130396 214.9105533854167 124.25784912109376 -38.545131254478321 18.306725565592448 -1.2735282921791078 102.84187235514324 -34.529503304617748 -14.722384800055089 -25.557986398905268 24.374371823397553 -4.9838111300801131 13.023805618286133 2.9561732133229572 -18.118843694318805 -31.75556612881747 -36.686825997488846 -23.095924849737258 -27.376485624767486 -12.511617863972983 -44.094654415815306 -16.539883670806883
leaf_weight=99 24 20 54 32 77 20 20 30 21 30 22 169 30 30 30 56 78 119 22 43 24 36 57 77 105 42 84 60 78 80
leaf_count=99 24 20 54 32 77 20 20 30 21 30 22 169 30 30 30 56 78 119 22 43 24 36 57 77 105 42 84 60 78 80
internal_value=-6.81543e-08 189.606 -22.6357 146.692 -29.9562 7.81164 337.657 3.76405 -21.4752 197.848 104.96 -38.9309 15.5055 -3.87149 97.0979 -36.2287 -15.8646 -26.6329 20.8738 -7.20896 10.336 1.03358 -17.7017 -32.9235 -37.833 -24.9157 -28.3501 -13.7612 -45.1446 -17.1968
internal_weight=1669 178 1491 138 1202 289 40 269 618 62 76 584 106 163 54 407 296 322 52 97 54 66 158 133 274 161 161 138 177 137
internal_count=1669 178 1491 138 1202 289 40 269 618 62 76 584 106 163 54 407 296 322 52 97 54 66 158 133 274 161 161 138 177 137
is_linear=0
shrinkage=0.1


Tree=6
num_leaves=31
num_cat=0
split_feature=0 0 0 1 2 0 0 0 1 0 1 0 0 0 1 0 0 0 0 0 0 0 0 0 0 0 0 0 0 0
split_gain=5.80255e+08 9.54809e+07 2.50284e+07 2.23849e+07 1.31188e+07 7.45856e+06 3.0264e+06 1.99559e+06 1.43215e+06 965664 547096 513703 257481 249483 193306 100895 97614.3 54907.4 41232.2 30924.7 28568.1 16824 16653.4 13589.6 13564.2 13343.2 11945.7 10659.8 10590.5 4941.33
threshold=2017.5850000000003 4658.1400000000012 549.29000000000008 3345.4850000000001 5904.6800000000012 935.44000000000017 310.87000000000006 3963.3800000000006 1483.3350000000003 729.06000000000006 181.15000000000001 2551.0300000000007 1108.8750000000002 409.50500000000005 4403.8350000000009 633.28500000000008 829.2850000000002 477.72000000000008 260.76500000000004 351.48000000000008 1191.5650000000003 596.05000000000007 1012.8500000000001 666.57500000000016 442.55000000000001 787.93000000000018 100.22000000000001 227.09500000000003 881.55500000000018 126.61500000000001
decision_type=2 2 2 2 2 2 2 2 2 2 2 2 2 2 2 2 2 2 2 2 2 2 2 2 2 2 2 2 2 2
left_child=2 3 6 11 -3 9 10 -5 12 15 26 -2 22 19 -9 21 25 24 27 -8 -14 -4 -7 -17 -15 -11 -1 -12 -18 -28
right_child=1 4 5 7 -6 8 13 14 -10 16 18 -13 20 17 -16 23 28 -19 -20 -21 -22 -23 -24 -25 -26 -27 29 -29 -30 -31
leaf_value=-42.331517682756697 80.87485046386719 238.87464652683425 -16.00393501628529 144.51065917968751 345.68131156589675 5.4133088111877443 -29.350508577861486 176.4210077459162 41.396638336181638 -6.4830585012630539 -35.608004392426594 97.340598297119143 14.828186187744141 -24.209639399392266 190.00478088378907 -12.151740946914211 -1.4947006270289422 -19.938662992204939 -31.918854665232228 -26.610546913467534 19.269539369855607 -14.09441713942695 8.9474312591552732 -9.9403644879659012 -22.528605851672946 -3.6050816933314005 -40.736780317439589 -34.036811530660593 1.3236066552003225 -39.516275080928096
leaf_weight=35 36 23 88 20 23 24 63 22 20 49 58 40 30 112 20 66 24 56 91 119 28 97 30 48 84 24 86 169 30 54
leaf_count=35 36 23 88 20 23 24 63 22 20 49 58 40 30 112 20 66 24 56 91 119 28 97 30 48 84 24 86 169 30 54
internal_value=-1.42365e-07 167.508 -20.7552 125.918 292.278 -4.02213 -30.8275 170.509 16.7475 -10.4578 -36.1885 89.541 12.3458 -24.7378 182.889 -13.5607 -3.15241 -22.7002 -33.7173 -27.559 16.9723 -15.0027 7.37671 -11.2206 -23.4892 -5.53687 -40.6791 -34.4383 0.0710256 -40.266
internal_weight=1669 184 1485 138 46 558 927 62 132 426 493 76 112 434 42 299 127 252 318 182 58 185 54 114 196 73 175 227 54 140
internal_count=1669 184 1485 138 46 558 927 62 132 426 493 76 112 434 42 299 127 252 318 182 58 185 54 114 196 73 175 227 54 140
is_linear=0
shrinkage=0.1


Tree=7
num_leaves=31
num_cat=0
split_feature=0 0 0 0 1 0 3 1 0 0 0 1 1 0 0 0 0 0 0 0 0 0 0 0 0 0 0 0 0 0
split_gain=4.70127e+08 6.86818e+07 2.65799e+07 1.67191e+07 7.66333e+06 6.91721e+06 2.74539e+06 1.68652e+06 1.1863e+06 1.06561e+06 820696 611645 261349 158183 130396 97356.8 72421.6 54544.5 27009.2 26751.2 21908.3 21771.8 20493.2 18636.3 17266.4 14458.7 11058 8952.55 8892.21 7793.58
threshold=2394.2950000000005 5494.380000000001 758.13000000000011 3835.7600000000007 1754.6450000000002 389.39500000000004 2763655000.0000005 2936.1700000000005 549.29000000000008 998.75000000000011 208.45000000000002 4449.7900000000009 312.67000000000002 1154.7300000000002 649.2600000000001 850.18500000000006 2590.9150000000004 455.47000000000008 262.31000000000006 1232.0400000000002 143.20500000000001 705.49500000000012 601.66000000000008 351.48000000000008 921.51500000000021 1048.9500000000003 502.14500000000004 424.02000000000004 98.300000000000011 796.11500000000012
decision_type=2 2 2 2 2 2 2 2 2 2 2 2 2 2 2 2 2 2 2 2 2 2 2 2 2 2 2 2 2 2
left_child=2 3 5 7 9 10 -3 16 17 15 20 -5 18 25 22 29 -2 27 -12 -15 28 -16 -10 -14 -17 -11 -19 -7 -1 -4
right_child=1 6 4 11 -6 8 -8 -9 14 13 12 -13 23 19 21 24 -18 26 -20 -21 -22 -23 -24 -25 -26 -27 -28 -29 -30 -31
leaf_value=-38.310701533726288 78.388836161295572 247.66389892578127 -4.9393861216883508 157.35751594094671 57.658195400238043 -22.417245483398439 300.06037475585936 116.5898159790039 -14.303461380004883 7.0614953358968098 -30.811598247563076 179.39653625488282 -26.472997676964965 14.81557996114095 -10.004053419064254 0.46075790739721723 85.874858529227126 -19.402752709767178 -28.673040733808353 19.406514739990236 -33.25835629417783 -7.0310084131028923 -12.321183587870467 -24.265824286492318 3.9234986941019692 10.532644271850586 -17.014337049211775 -21.032180960518975 -36.36082961391395 -2.6784302775065107
leaf_weight=28 24 20 31 34 32 84 20 20 100 24 218 20 66 30 78 36 28 63 81 22 21 36 109 91 24 24 28 105 142 30
leaf_count=28 24 20 31 34 32 84 20 20 100 24 218 20 66 30 78 36 28 63 81 22 21 36 109 91 24 24 28 105 142 30
internal_value=1.59425e-07 159.7 -17.6382 123.458 11.921 -23.621 273.862 91.9115 -15.9154 5.2984 -30.8025 165.52 -28.4975 12.9367 -11.7857 -1.01424 82.4198 -20.6793 -30.2323 16.7579 -36.3056 -9.0652 -13.2696 -25.1937 1.84585 8.79707 -18.6679 -21.6478 -36.682 -3.82744
internal_weight=1669 166 1503 126 253 1250 40 72 603 221 647 54 456 100 323 121 52 280 299 52 191 114 209 157 60 48 91 189 170 61
internal_count=1669 166 1503 126 253 1250 40 72 603 221 647 54 456 100 323 121 52 280 299 52 191 114 209 157 60 48 91 189 170 61
is_linear=0
shrinkage=0.1


Tree=8
num_leaves=31
num_cat=0
split_feature=0 0 0 1 2 0 0 0 1 0 2 0 0 0 0 0 0 0 0 0 0 0 0 0 0 0 0 0 0 0
split_gain=3.81289e+08 6.27518e+07 1.63693e+07 1.25519e+07 1.18681e+07 4.83352e+06 1.9863e+06 994352 869938 634342 359370 311701 169922 165195 105046 67401.1 63939.2 35668.6 27829.4 22738.4 18391.6 12337.1 11336.2 10502 9374.39 8583.49 8070.43 6238.98 4809.87 4309.22
threshold=2017.5850000000003 4562.9750000000013 549.29000000000008 3345.4850000000001 5904.6800000000012 935.44000000000017 310.87000000000006 3963.3800000000006 1483.3350000000003 729.06000000000006 168.51000000000002 2485.5250000000001 1108.8750000000002 413.65500000000003 2708.3850000000007 626.1600000000002 834.90500000000009 479.60000000000008 248.64500000000001 358.97000000000008 1191.5650000000003 666.57500000000016 787.93000000000018 1012.8500000000001 444.51000000000005 112.85000000000001 588.84000000000003 225.75500000000002 896.22500000000002 270.87000000000006
decision_type=2 2 2 2 2 2 2 2 2 2 2 2 2 2 2 2 2 2 2 2 2 2 2 2 2 2 2 2 2 2
left_child=2 3 6 11 -3 9 10 -5 12 15 25 -2 23 19 -13 26 22 24 27 -8 -14 -17 -11 -7 -15 -1 -4 -12 -18 -20
right_child=1 4 5 7 -6 8 13 -9 -10 16 18 14 20 17 -16 21 28 -19 29 -21 -22 -23 -24 -25 -26 -27 -28 -29 -30 -31
leaf_value=-33.733950062287157 63.23497365315756 186.28413801522092 -13.141075461251397 117.17758178710938 282.47402396824049 4.4011782487233484 -23.580890031294391 144.98737894694011 32.638704757690434 -5.2383673298115632 -28.98782773485371 73.163511149088535 12.035127588907878 -19.52540021623884 82.260935003107249 -10.029954328991119 -0.67453240789473057 -15.909997465172593 -26.739103862217497 -21.348572158813479 15.598688125610352 -8.0202487309773769 -2.7701191711425786 7.2076927820841483 -18.127903238932291 -32.324928079192169 -11.732203139472254 -27.705298057762356 1.3275220621377231 -25.533489021422373
leaf_weight=78 24 29 70 20 23 24 77 36 20 49 51 30 30 112 22 84 24 49 56 112 28 48 30 30 84 97 97 148 24 63
leaf_count=78 24 29 70 20 23 24 77 36 20 49 51 30 30 112 22 84 24 49 56 112 28 48 30 30 84 97 97 148 24 63
internal_value=1.06003e-07 135.785 -16.8246 99.1317 228.83 -3.2922 -24.9703 135.055 13.4277 -8.473 -29.3134 72.6616 9.99711 -20.0367 77.0124 -10.9879 -2.55206 -18.3232 -27.3106 -22.258 13.7555 -9.29915 -4.30106 5.96035 -18.9265 -32.9529 -12.3227 -28.034 0.326495 -26.1008
internal_weight=1669 184 1485 132 52 558 927 56 132 426 493 76 112 434 52 299 127 245 318 189 58 132 79 54 196 175 167 199 48 119
internal_count=1669 184 1485 132 52 558 927 56 132 426 493 76 112 434 52 299 127 245 318 189 58 132 79 54 196 175 167 199 48 119
is_linear=0
shrinkage=0.1


Tree=9
num_leaves=31
num_cat=0
split_feature=0 0 0 0 0 3 0 2 1 0 0 1 0 0 0 0 0 0 0 0 0 3 0 0 0 0 0 0 0 0
split_gain=3.08844e+08 5.12233e+07 1.35787e+07 1.32591e+07 3.91515e+06 1.75279e+06 1.609e+06 960535 704650 514152 320871 299636 137637 124914 106462 58374.6 49205 28891.6 25586.1 16054.6 15426.1 11586.7 10716.5 8855.62 8506.65 7636.45 7184.65 6254.42 6006.96 5146.8
threshold=2017.5850000000003 5494.380000000001 3299.7250000000008 549.29000000000008 935.44000000000017 2763655000.0000005 314.92500000000007 3960.7950000000005 1483.3350000000003 713.44000000000017 2708.3850000000007 181.15000000000001 1108.8750000000002 413.65500000000003 2485.5250000000001 812.7750000000002 623.82000000000016 479.60000000000008 257.27500000000003 361.88000000000005 1180.1000000000001 1942715000.0000002 867.26500000000021 658.98500000000001 1012.8500000000001 446.49500000000006 103.03500000000001 232.39000000000001 582.07000000000016 768.2850000000002
decision_type=2 2 2 2 2 2 2 2 2 2 2 2 2 2 2 2 2 2 2 2 2 2 2 2 2 2 2 2 2 2
left_child=3 2 10 6 9 -3 11 -4 12 16 14 26 24 19 -2 29 28 25 27 -8 -14 -9 -17 -18 -6 -15 -1 -13 -5 -11
right_child=1 5 7 4 8 -7 13 21 -10 15 -12 18 20 17 -16 22 23 -19 -20 -21 -22 -23 -24 -25 -26 -27 -28 -29 -30 -31
leaf_value=-30.799608939034599 56.911475626627606 201.3833935546875 111.28643002717394 -12.04983335876465 3.9610603372255961 243.24978149414065 -21.046223291174158 135.00071411132814 29.374834823608399 -5.3619094424777565 75.772394053141269 -25.76304388558993 10.438819503784181 -17.535925164743631 65.847159830729169 -1.7543248875935875 -9.2828529993693039 -14.318997316944357 -23.242659926641558 -19.145162673223588 13.750109616447899 138.28464355468751 0.80477586632801423 -7.6378962198893241 6.4869233957926431 -16.257854114879262 -29.299332628752058 -24.683696128064256 -10.729772653665629 -3.6040907398346933
leaf_weight=42 24 20 23 50 24 20 77 22 20 36 24 93 24 119 30 30 72 49 105 105 34 21 36 60 30 77 133 127 111 31
leaf_count=42 24 20 23 50 24 20 77 22 20 36 24 93 24 119 30 30 72 49 105 105 34 21 36 60 30 77 133 127 111 31
internal_value=-3.93028e-08 122.207 94.3987 -15.1421 -2.96298 222.317 -22.4733 127.782 12.0849 -7.6257 66.1516 -26.3233 8.9974 -17.965 61.8757 -2.46927 -9.96633 -16.4909 -24.527 -19.9495 12.3799 136.604 -0.358452 -8.53515 5.36432 -17.0338 -29.6594 -25.14 -11.1397 -4.54859
internal_weight=1669 184 144 1485 558 40 927 66 132 426 78 500 112 427 54 133 293 245 325 182 58 43 66 132 54 196 175 220 161 67
internal_count=1669 184 144 1485 558 40 927 66 132 426 78 500 112 427 54 133 293 245 325 182 58 43 66 132 54 196 175 220 161 67
is_linear=0
shrinkage=0.1


Tree=10
num_leaves=31
num_cat=0
split_feature=2 0 0 2 0 0 0 0 2 0 2 0 0 0 2 0 0 0 0 0 0 0 0 0 0 0 0 0 0 0
split_gain=2.50195e+08 4.02493e+07 1.13789e+07 9.01017e+06 6.91152e+06 3.70184e+06 1.38122e+06 1.08422e+06 597457 436022 256154 180492 103895 98745 49403.2 47647.4 44144.6 26596.5 23810.9 23764.8 17640.5 7911.11 7431.44 6525.71 6393.32 6293.25 3686.26 3469.73 3400.31 2674.12
threshold=2063.0350000000003 4658.1400000000012 570.43500000000006 3154.7300000000005 6123.4350000000013 967.30000000000007 323.68000000000006 1515.7950000000003 3960.7950000000005 736.30500000000018 168.51000000000002 2708.3850000000007 433.3300000000001 1068.2050000000002 2421.4000000000005 850.18500000000006 636.41500000000008 265.28000000000003 496.19000000000005 381.72500000000008 1180.1000000000001 678.1450000000001 787.93000000000018 123.96500000000002 604.30500000000018 234.03500000000005 339.05500000000001 902.96500000000015 94.830000000000013 453.80500000000006
decision_type=2 2 2 2 2 2 2 2 2 2 2 2 2 2 2 2 2 2 2 2 2 2 2 2 2 2 2 2 2 2
left_child=2 3 6 11 -3 9 10 13 -5 16 23 14 19 -7 -2 22 24 25 29 26 -15 -18 -11 28 -4 -12 -8 -17 -1 -14
right_child=1 4 5 8 -6 7 12 -9 -10 15 17 -13 18 20 -16 27 21 -19 -20 -21 -22 -23 -24 -25 -26 -27 -28 -29 -30 -31
leaf_value=-28.289739554268973 53.055525141176979 155.22497812906903 -10.275467482857083 99.808665720621747 232.8226706764915 4.7006182761419391 -19.302626419067384 32.403226769488796 120.06737885346284 -4.0840513850367346 -23.119418634432499 67.169775390625006 -15.201126708984376 9.112291361490886 59.417983069786658 -0.052095299710830059 -7.8108586205376529 -20.593712039869658 -12.197044543830716 -16.331913241049403 12.395631048414444 -6.0839068276541575 -2.1366096682018703 -25.858935321745328 -9.072520841710709 -22.090924687172052 -17.977725583031066 1.6483297000328703 -26.880903576266384 -14.303083873930433
leaf_weight=21 23 24 92 24 22 42 28 23 37 43 107 23 70 30 26 24 72 98 49 133 36 42 36 61 85 134 84 24 93 63
leaf_count=21 23 24 92 24 22 42 28 23 37 43 107 23 70 30 26 24 72 98 49 133 36 42 36 61 85 134 84 24 93 63
internal_value=1.39926e-07 111.706 -13.4198 83.8192 192.337 -1.97873 -20.0947 12.6894 112.097 -6.57568 -23.5867 59.8618 -15.8913 8.49109 56.4315 -1.68679 -8.70932 -21.9827 -14.0815 -17.2357 10.9032 -7.17461 -3.19661 -26.6937 -9.69778 -22.5476 -18.309 0.798117 -27.1404 -14.7757
internal_weight=1669 179 1490 133 46 549 941 131 61 418 514 72 427 108 49 127 291 339 182 245 66 114 79 175 177 241 112 48 114 133
internal_count=1669 179 1490 133 46 549 941 131 61 418 514 72 427 108 49 127 291 339 182 245 66 114 79 175 177 241 112 48 114 133
is_linear=0
shrinkage=0.1


Tree=11
num_leaves=31
num_cat=0
split_feature=0 0 0 2 1 0 0 0 1 0 1 0 0 0 0 0 0 0 0 0 0 0 0 0 0 0 0 0 0 0
split_gain=2.02811e+08 3.37688e+07 8.68704e+06 6.96664e+06 6.58742e+06 2.55018e+06 1.05779e+06 536796 440141 337311 190765 157790 90946.2 88674.3 38359.3 32496.4 20221.6 14923.5 14637.9 10012 6390.09 5338.69 5251.98 4683.67 4596.37 3872.81 3618.52 3311.11 3229.37 2754.25
threshold=2017.5850000000003 4562.9750000000013 549.29000000000008 5904.6800000000012 3345.4850000000001 935.44000000000017 310.87000000000006 3963.3800000000006 1483.3350000000003 713.44000000000017 181.15000000000001 2551.0300000000007 1068.2050000000002 405.03500000000008 822.85000000000002 622.32000000000005 473.75500000000005 248.64500000000001 1216.9550000000002 339.05500000000001 658.98500000000001 867.26500000000021 123.96500000000002 768.2850000000002 437.85500000000008 223.14000000000001 585.24000000000012 1012.8500000000001 502.14500000000004 94.830000000000013
decision_type=2 2 2 2 2 2 2 2 2 2 2 2 2 2 2 2 2 2 2 2 2 2 2 2 2 2 2 2 2 2
left_child=2 4 6 -3 11 9 10 -6 12 15 22 -2 27 19 23 26 24 25 -14 -8 -17 -16 29 -11 -15 -12 -4 -7 -18 -1
right_child=1 3 5 -5 7 8 13 -9 -10 14 17 -13 18 16 21 20 28 -19 -20 -21 -22 -23 -24 -25 -26 -27 -28 -29 -30 -31
leaf_value=-25.460765656970796 48.163785976833765 134.68920940530711 -9.698596418949597 208.38629415760872 85.031842651367185 3.1711996873219808 -17.556107439313617 105.46485951741536 23.397103881835939 -4.3506515026092529 -21.367560762972445 57.289469451904303 8.665451104300363 -14.381076892671132 -1.2809804424643518 -7.5520506638746996 -12.511140332903182 -19.028842958081672 11.849596578424627 -15.871512409997365 -6.1793683497111012 0.64448656108644276 -23.276740377457415 -2.7485032725978544 -13.410074556790867 -20.233643633053628 -8.6965667413205523 4.8323004086812347 -11.070299611772811 -24.192813340053764
leaf_weight=21 36 29 57 23 20 24 49 36 20 36 37 40 42 105 24 78 35 119 22 126 60 36 61 37 91 162 98 24 28 93
leaf_count=21 36 29 57 23 20 24 49 36 20 36 37 40 42 105 24 78 35 119 22 126 60 36 61 37 91 162 98 24 28 93
internal_value=-1.14924e-08 99.0311 -12.2705 167.286 72.1428 -2.41236 -18.2046 98.1674 9.73232 -6.17551 -21.374 52.9668 7.29218 -14.6043 -1.99895 -8.07135 -13.4293 -19.9147 9.76 -16.3432 -6.95523 -0.1257 -24.0257 -3.5386 -13.9303 -20.4445 -9.06506 4.00175 -11.8708 -24.4264
internal_weight=1669 184 1485 52 132 558 927 56 132 426 493 76 112 434 133 293 259 318 64 175 138 60 175 73 196 199 155 48 63 114
internal_count=1669 184 1485 52 132 558 927 56 132 426 493 76 112 434 133 293 259 318 64 175 138 60 175 73 196 199 155 48 63 114
is_linear=0
shrinkage=0.1


Tree=12
num_leaves=31
num_cat=0
split_feature=1 0 0 0 0 0 3 1 0 0 1 1 0 0 0 0 0 0 0 0 0 0 0 0 0 0 0 0 0 0
split_gain=1.64308e+08 2.78989e+07 7.45675e+06 6.87278e+06 1.91257e+06 857690 794934 738841 264710 249632 195010 145524 97730 82380.9 60554.5 26602.4 26514.1 18171.3 9409.9 9170.1 8945.55 5581.33 5147.89 4727.77 4295.03 4280.42 3920.08 3892.24 3064.14 2823.98
threshold=2071.7500000000005 5494.380000000001 3835.7600000000007 549.29000000000008 921.51500000000021 290.23000000000008 2763655000.0000005 2936.1700000000005 1260.1400000000001 713.44000000000017 4449.7900000000009 181.15000000000001 2485.5250000000001 393.72500000000008 1068.2050000000002 630.74500000000012 812.7750000000002 457.30000000000007 238.43500000000003 2661.9900000000002 339.05500000000001 1172.6300000000003 998.75000000000011 596.05000000000007 122.56000000000002 850.18500000000006 502.14500000000004 678.1450000000001 431.76000000000005 750.25000000000011
decision_type=2 2 2 2 2 2 2 2 2 2 2 2 2 2 2 2 2 2 2 2 2 2 2 2 2 2 2 2 2 2
left_child=3 2 7 5 9 11 -3 12 14 15 -4 24 -2 20 22 23 29 28 -13 -14 -7 -16 -6 -5 -1 -18 -19 -17 -15 -11
right_child=1 6 10 4 8 13 -8 -9 -10 16 -12 18 19 17 21 27 25 26 -20 -21 -22 -23 -24 -25 -26 -27 -28 -29 -30 -31
leaf_value=-22.018021328649791 41.386839763934802 148.4907751464844 93.213808306525735 -8.5472469329833984 2.2792739242315294 -15.885840449257504 176.68534057617188 68.013750457763678 16.649764060974121 -4.1924552599589031 105.65810821533204 -18.570775005161362 47.705374526977543 -13.085049921152544 6.9700228373209647 -6.4194208145141607 -1.4637209296226503 -11.41242185320173 -17.457838804183467 50.531874778053975 -14.396331133161272 9.0159947967529295 4.2441964721679692 -7.5192477718814388 -21.001642294491038 0.26037788498732778 -9.9632695061819891 -5.0924795532226561 -12.279204819228625 -2.8384261353071345
leaf_weight=107 26 20 34 88 24 63 20 20 28 24 20 149 24 98 24 84 24 56 155 22 112 30 30 91 68 36 28 30 91 43
leaf_count=107 26 20 34 88 24 63 20 20 28 24 20 149 24 98 24 84 24 56 155 22 112 30 30 91 68 36 28 30 91 43
internal_value=8.78052e-08 88.5963 68.3246 -11.1119 -2.32169 -16.3841 162.588 51.0105 7.98516 -5.65915 97.8228 -19.3258 46.2873 -13.2389 5.73879 -7.26422 -1.95612 -12.1531 -18.0033 49.0572 -14.9326 8.10667 3.3709 -8.02463 -21.6231 -0.429262 -10.9294 -6.07023 -12.6971 -3.32345
internal_weight=1669 186 146 1483 556 927 40 92 136 420 54 479 72 448 108 293 127 273 304 46 175 54 54 179 175 60 84 114 189 67
internal_count=1669 186 146 1483 556 927 40 92 136 420 54 479 72 448 108 293 127 273 304 46 175 54 54 179 175 60 84 114 189 67
is_linear=0
shrinkage=0.1


Tree=13
num_leaves=31
num_cat=0
split_feature=0 0 0 0 0 1 1 0 1 0 0 0 0 0 0 0 0 0 0 0 0 0 0 0 0 0 0 0 0 0
split_gain=1.33094e+08 2.16541e+07 6.43842e+06 6.12646e+06 1.68034e+06 1.29352e+06 536908 430809 349562 302392 194733 49663.1 44945.3 44252.2 41557.8 20422.9 14646.3 7443.88 6593.23 6568.51 4591.36 4314.05 4088.57 3449.53 3116.15 2692.5 2653.96 2186.78 1981.87 938.743
threshold=2193.9150000000004 5724.8450000000003 3835.7600000000007 683.72000000000014 374.48500000000007 1754.6450000000002 2936.1700000000005 967.30000000000007 4620.6950000000006 511.01000000000005 208.45000000000002 1108.8750000000002 796.11500000000012 274.13000000000005 2551.0300000000007 608.04500000000019 442.55000000000001 881.55500000000018 329.9500000000001 130.80500000000004 1180.1000000000001 736.30500000000018 573.89000000000021 415.27000000000004 654.36000000000013 94.830000000000013 235.16000000000005 1034.2850000000001 489.01500000000004 143.20500000000001
decision_type=2 2 2 2 2 2 2 2 2 2 2 2 2 2 2 2 2 2 2 2 2 2 2 2 2 2 2 2 2 2
left_child=3 2 6 4 10 7 14 12 -4 16 19 27 21 26 -2 22 23 -14 -15 25 -13 -5 -11 -6 -17 -1 -12 -9 -18 -21
right_child=1 -3 8 5 9 -7 -8 11 -10 15 13 20 17 18 -16 24 28 -19 -20 29 -22 -23 -24 -25 -26 -27 -28 -29 -30 -31
leaf_value=-20.712887137276788 39.72872395833334 153.50926011029412 84.403491973876953 -4.3387527041965059 -12.364924806028933 27.704055480957035 61.212376556396492 3.0323580582936605 100.5952001953125 -8.5690559023902519 -16.69995559380979 6.8690117200215655 -1.0879009347586404 -14.725098092215402 44.835138298483457 -6.3768601024852085 -10.694256809779576 0.87171488743689329 -13.434198390415737 -18.703913661411828 8.6185570049285882 -2.8969600872117649 -7.3897897292156616 -11.509902619342416 -5.399771102269491 -19.486239321369773 -16.029036063116951 4.3822901407877604 -9.6237514314197359 -17.819444638206846
leaf_weight=21 30 34 40 36 91 20 20 24 20 42 98 24 42 91 34 102 98 36 70 28 40 49 98 98 48 121 148 24 21 21
leaf_count=21 30 34 40 36 91 20 20 24 20 42 98 24 42 91 34 102 98 36 70 28 40 49 98 98 48 121 148 24 21 21
internal_value=6.49741e-08 81.7296 64.7816 -9.75712 -12.9407 3.14975 46.9108 1.36398 89.8007 -9.19238 -16.689 6.13884 -1.91691 -15.4528 42.4415 -6.87493 -11.3744 -0.183463 -14.1638 -19.3232 7.96248 -3.5076 -7.74357 -11.9216 -6.06419 -19.6676 -16.2963 3.70732 -10.5053 -18.3249
internal_weight=1669 178 144 1491 1196 295 84 275 60 598 598 112 163 407 64 290 308 78 161 191 64 85 140 189 150 142 246 48 119 49
internal_count=1669 178 144 1491 1196 295 84 275 60 598 598 112 163 407 64 290 308 78 161 191 64 85 140 189 150 142 246 48 119 49
is_linear=0
shrinkage=0.1


Tree=14
num_leaves=31
num_cat=0
split_feature=1 0 0 0 0 0 0 0 0 0 0 0 0 0 0 0 0 1 0 0 0 0 0 0 0 0 1 0 0 1
split_gain=1.07902e+08 1.85322e+07 6.45729e+06 4.5019e+06 1.23062e+06 579818 495216 455102 176205 144928 98552.1 53807.4 48131.4 45575.9 16548.9 14584.7 14211.7 8809.92 6086.42 5618.62 5402.43 4657.61 3582.82 3434.38 3258 2719.27 2051.48 2037.92 1595.91 1592.18
threshold=2071.7500000000005 5917.630000000001 3835.7600000000007 566.78000000000009 911.96000000000015 293.91000000000003 2807.2300000000005 4562.9750000000013 1260.1400000000001 713.44000000000017 208.45000000000002 400.08500000000004 2485.5250000000001 1068.2050000000002 636.41500000000008 796.11500000000012 479.60000000000008 4360.5350000000008 265.28000000000003 358.97000000000008 128.28500000000005 998.75000000000011 1172.6300000000003 446.49500000000006 604.30500000000018 850.18500000000006 98.185000000000016 678.1450000000001 234.03500000000005 766.11000000000013
decision_type=2 2 2 2 2 2 2 2 2 2 2 2 2 2 2 2 2 2 2 2 2 2 2 2 2 2 2 2 2 2
left_child=3 2 6 5 9 10 12 17 13 14 20 19 -2 21 24 29 23 -4 28 -7 26 -6 -15 -13 -5 -17 -1 -16 -12 -11
right_child=1 -3 7 4 8 11 -8 -9 -10 15 18 16 -14 22 27 25 -18 -19 -20 -21 -22 -23 -24 -25 -26 -27 -28 -29 -30 -31
leaf_value=-18.667632257370723 33.645273766150844 146.77810756138393 74.718223987926137 -6.7985388245245417 1.6734231691559156 -12.592417426336381 53.734948730468751 93.361334355672213 13.304981912885394 -3.375881654244882 -15.051808568933508 -10.417959703717914 39.119935171944753 5.6482873916625982 -5.1091315799289276 -1.2799430624643964 -8.3361052240644185 77.618131713867186 -13.660922263009207 -11.458259305849181 -16.632767958868119 3.4355451329549158 7.2875304412841801 -9.5864938215775926 -5.9545101210650273 0.066478121553858113 -17.586602740421476 -4.1281359163920088 -14.509154965984289 -2.3472967905156756
leaf_weight=21 26 28 22 99 30 84 24 24 28 27 91 140 42 24 72 30 56 20 70 91 63 30 30 77 85 30 107 30 134 34
leaf_count=21 26 28 22 99 30 84 24 24 28 27 91 140 42 24 72 30 56 20 70 91 63 30 30 77 85 30 107 30 134 34
internal_value=1.53561e-08 71.7961 58.5082 -9.00477 -1.81832 -13.2289 41.3854 82.3763 6.19714 -4.61487 -15.6211 -10.6338 37.0267 4.45135 -5.84227 -1.71373 -9.7564 76.0991 -14.4753 -12.0027 -17.3908 2.55448 6.55898 -10.1229 -6.40863 -0.606732 -17.764 -4.8206 -14.7286 -2.80257
internal_weight=1669 186 158 1483 549 934 92 66 142 407 486 448 68 114 286 121 273 42 295 175 191 60 54 217 184 60 128 102 225 61
internal_count=1669 186 158 1483 549 934 92 66 142 407 486 448 68 114 286 121 273 42 295 175 191 60 54 217 184 60 128 102 225 61
is_linear=0
shrinkage=0.1


Tree=15
num_leaves=31
num_cat=0
split_feature=1 2 0 0 0 0 0 1 1 0 0 0 0 0 0 0 0 1 0 0 1 2 2 0 2 0 0 0 0 0
split_gain=8.74007e+07 1.51471e+07 5.85529e+06 3.64761e+06 1.01034e+06 501324 456668 402115 152394 109550 77770.9 49331.2 46603.3 44035.5 12545.3 12215.3 10750.1 7136.03 5651.42 4899.45 4440.03 3883.92 3741.69 2556.62 2382.07 2353.53 2286.93 2238.28 1853.8 1494.1
threshold=2071.7500000000005 5904.6800000000012 3835.7600000000007 549.29000000000008 902.96500000000015 4562.9750000000013 290.23000000000008 2936.1700000000005 1307.2650000000001 702.86500000000012 143.20500000000001 2485.5250000000001 1068.2050000000002 387.29000000000002 778.60500000000013 616.60000000000002 453.80500000000006 4360.5350000000008 246.90500000000003 998.75000000000011 2758.2350000000006 325.68500000000006 1144.6550000000002 502.14500000000004 91.940000000000012 850.18500000000006 221.12500000000003 656.32500000000016 422.78500000000003 579.94000000000017
decision_type=2 2 2 2 2 2 2 2 2 2 2 2 2 2 2 2 2 2 2 2 2 2 2 2 2 2 2 2 2 2
left_child=3 2 7 6 9 17 10 11 12 15 24 -2 19 21 -11 29 28 -4 26 -6 -13 -8 -14 -18 -1 -16 -12 -17 -15 -5
right_child=1 -3 5 4 8 -7 13 -9 -10 14 18 20 22 16 25 27 23 -19 -20 -21 -22 -23 -24 -25 -26 -27 -28 -29 -30 -31
leaf_value=-16.80666801815941 30.28074634258564 140.58590698242188 67.246402254971585 -6.5101697788682094 1.3616420060396195 85.584043410728725 -11.646392508915493 49.790718383789063 12.671101097265881 -2.8643640393116439 -14.202044590541295 34.789674250284833 5.0427335158638336 -9.6984322320847287 -1.3264437317848206 -5.021284439450219 -8.3806828308105477 69.856318054199221 -12.579379326956612 3.0919906044006349 36.756450167569248 -10.615153605143229 6.6846452549525672 -7.2500592095511296 -15.669042303098131 -0.08507405333220959 -13.31065377129449 -4.1960817866855198 -9.0681607636951274 -5.8052759361267094
leaf_weight=21 26 23 22 43 36 29 56 20 24 61 35 24 23 84 42 84 70 20 112 30 22 105 35 28 149 24 162 54 105 100
leaf_count=21 26 23 22 43 36 29 56 20 24 61 35 24 23 84 42 84 70 20 112 30 22 105 35 28 149 24 162 54 105 100
internal_value=2.12759e-08 64.6165 53.8969 -8.10429 -1.70052 75.4716 -11.9452 37.2468 5.37723 -4.26794 -14.0917 33.7624 3.96552 -9.65014 -1.83054 -5.36954 -8.90758 68.4892 -13.1466 2.14816 35.7303 -10.9738 6.03354 -8.05765 -15.8096 -0.875037 -13.469 -4.69838 -9.34828 -6.01724
internal_weight=1669 186 163 1483 556 71 927 92 148 408 479 72 124 448 127 281 287 42 309 66 46 161 58 98 170 66 197 138 189 143
internal_count=1669 186 163 1483 556 71 927 92 148 408 479 72 124 448 127 281 287 42 309 66 46 161 58 98 170 66 197 138 189 143
is_linear=0
shrinkage=0.1


Tree=16
num_leaves=31
num_cat=0
split_feature=0 2 0 0 0 1 0 0 0 0 0 0 0 0 0 0 0 0 0 0 0 0 0 0 0 0 0 0 0 0
split_gain=7.08423e+07 1.24751e+07 4.91705e+06 2.81532e+06 707617 418621 359715 348697 83156.8 73475.2 62994.5 35553.4 33654.4 23816.1 10768.7 10241.2 9063.51 8709.91 7348.56 4657.19 3198.99 2102.31 1891.46 1813.01 1662.88 1567.76 1557.14 1206.77 1187.09 781.551
threshold=1813.5700000000004 5904.6800000000012 3835.7600000000007 532.6500000000002 896.22500000000002 4725.0650000000014 290.23000000000008 2807.2300000000005 702.86500000000012 1129.1450000000002 143.20500000000001 2485.5250000000001 387.29000000000002 4229.8450000000012 616.60000000000002 1260.1400000000001 998.75000000000011 773.20500000000004 449.40500000000003 235.96000000000001 339.05500000000001 106.87000000000002 270.87000000000006 656.32500000000016 489.01500000000004 829.2850000000002 579.94000000000017 215.76500000000001 421.38000000000005 736.30500000000018
decision_type=2 2 2 2 2 2 2 2 2 2 2 2 2 2 2 2 2 2 2 2 2 2 2 2 2 2 2 2 2 2
left_child=3 2 7 6 8 13 10 11 14 16 21 -2 20 -4 26 -11 -6 29 28 27 -8 -1 -21 -16 -20 -19 -5 -12 -14 -10
right_child=1 -3 5 4 9 -7 12 -9 17 15 19 -13 18 -15 23 -17 -18 25 24 22 -22 -23 -24 -25 -26 -27 -28 -29 -30 -31
leaf_value=-14.723753276624178 27.10629389444987 126.52731814177139 60.085197957356776 -5.9082251586914065 1.0872951721151671 78.340197875976571 -10.432411872016059 43.6539301554362 -3.0998105923334762 5.643059358142672 -12.878751182556153 31.613649204799106 -8.7526484799075437 64.64028764204545 -4.5191560018630259 8.2325705058872707 3.1647832189287461 -1.4123937659793431 -7.6820229339599608 -11.704178192366415 -9.5190638172383224 -13.978855706949151 -10.978116919069874 -3.7764735998930754 -6.8378295462472103 -0.43358176484704014 -5.2247483711242673 -12.13435201839525 -8.2279584145059399 -2.3397055349042342
leaf_weight=57 30 23 24 50 42 25 63 24 24 42 28 42 77 22 84 24 42 36 70 134 98 113 49 54 35 30 100 98 98 31
leaf_count=57 30 23 24 50 42 25 63 24 24 42 28 42 77 22 84 24 42 36 70 134 98 113 49 54 35 30 100 98 98 31
internal_value=1.8959e-08 57.4812 47.9718 -7.38433 -1.78717 67.9245 -10.7852 33.2152 -3.94182 4.08785 -12.6825 29.7356 -8.72442 62.2637 -4.86606 6.5847 2.12604 -1.74198 -8.062 -11.8319 -9.87646 -14.2286 -11.5098 -4.22854 -7.40063 -0.967479 -5.45257 -12.2998 -8.45882 -2.67139
internal_weight=1669 190 167 1479 559 71 920 96 409 150 479 72 441 46 288 66 84 121 280 309 161 170 183 138 105 66 150 126 175 55
internal_count=1669 190 167 1479 559 71 920 96 409 150 479 72 441 46 288 66 84 121 280 309 161 170 183 138 105 66 150 126 175 55
is_linear=0
shrinkage=0.1


Tree=17
num_leaves=31
num_cat=0
split_feature=0 0 2 0 0 0 0 0 0 0 0 0 0 0 0 0 0 0 0 0 0 0 0 1 0 0 0 0 0 0
split_gain=5.73823e+07 1.0152e+07 4.09241e+06 2.28041e+06 573170 455341 291369 103903 67564.6 59938.8 51025.5 43094.2 27288.2 21489.8 11353.3 8925.75 7201.68 6589.92 4669.18 3831.77 2119.18 2020.48 1998.19 1810.01 1346.93 1299.75 1206.54 1188.36 1005.91 939.185
threshold=1813.5700000000004 6123.4350000000013 3408.8800000000006 532.6500000000002 896.22500000000002 4562.9750000000013 290.23000000000008 2708.3850000000007 683.72000000000014 1068.2050000000002 143.20500000000001 4180.4650000000011 381.72500000000008 2485.5250000000001 1260.1400000000001 773.20500000000004 613.92500000000007 449.40500000000003 967.30000000000007 229.16000000000005 329.9500000000001 1172.6300000000003 266.98500000000007 98.185000000000016 489.01500000000004 834.90500000000009 421.38000000000005 575.69500000000005 651.46500000000003 736.30500000000018
decision_type=2 2 2 2 2 2 2 2 2 2 2 2 2 2 2 2 2 2 2 2 2 2 2 2 2 2 2 2 2 2
left_child=3 2 7 6 8 11 10 13 16 18 23 -4 20 -2 21 29 27 26 -6 -12 -8 -11 -21 -1 -19 -17 -14 -5 -18 -10
right_child=1 -3 5 4 9 -7 12 -9 15 14 19 -13 17 -15 -16 25 28 24 -20 22 -22 -23 -24 -25 -26 -27 -28 -29 -30 -31
leaf_value=-13.674913606189547 24.395664469401041 115.60983331853693 51.088084106445315 -5.4264895333184135 0.64562499970197684 69.636867523193359 -9.5013923800721454 33.578311420309134 -2.8566326565212674 4.1114279270172123 -11.259966436609046 57.020501073201501 -7.9108330611344231 28.180705922444663 7.4093133827050526 -1.2061904861813499 -4.1360159458258217 -6.9138204302106594 2.2790572665986559 -10.611387612602927 -8.6959560783541932 5.3424261601765952 -9.9255641937255863 -12.683254907595233 -6.1540466526576454 -0.28367771779497469 -7.4051625465860171 -4.7630630987661853 -3.5745508617824981 -2.1057349389599218
leaf_weight=21 30 22 25 36 30 30 49 29 36 24 77 24 91 30 24 42 78 70 42 176 98 30 56 149 35 24 98 108 54 31
leaf_count=21 30 22 25 36 30 30 49 29 36 24 77 24 91 30 24 42 78 70 42 176 98 30 56 149 35 24 98 108 54 31
internal_value=-7.01578e-09 51.733 43.3682 -6.64589 -1.60845 59.9342 -9.70669 28.6636 -3.54764 3.67906 -11.4143 53.9938 -7.85198 26.2882 5.59962 -1.69613 -4.43985 -7.29575 1.59846 -10.6487 -8.96443 4.79532 -10.4458 -12.8058 -6.66056 -0.870731 -7.64863 -4.92892 -3.90633 -2.5092
internal_weight=1669 190 168 1479 559 79 920 89 409 150 479 49 441 60 78 133 276 294 72 309 147 54 232 170 105 66 189 144 132 67
internal_count=1669 190 168 1479 559 79 920 89 409 150 479 49 441 60 78 133 276 294 72 309 147 54 232 170 105 66 189 144 132 67
is_linear=0
shrinkage=0.1


Tree=18
num_leaves=31
num_cat=0
split_feature=0 2 0 0 0 1 0 1 0 0 0 0 0 0 0 1 0 0 0 0 0 0 0 3 0 0 0 0 1 0
split_gain=4.64797e+07 8.25127e+06 3.24098e+06 1.84716e+06 457740 271241 242855 234267 58228.9 46764 43691.7 27496.4 18048.8 12461.7 7824.7 6897.9 5325.91 4779.99 4228.63 3649.57 3626.29 2832.77 1624.05 1516.24 1084.61 981.371 887.633 844.504 774.991 747.908
threshold=1813.5700000000004 5904.6800000000012 3835.7600000000007 549.29000000000008 902.96500000000015 4725.0650000000014 319.92000000000007 2936.1700000000005 713.44000000000017 208.45000000000002 1129.1450000000002 2485.5250000000001 420.09000000000009 4229.8450000000012 633.28500000000008 1307.2650000000001 796.11500000000012 998.75000000000011 270.87000000000006 374.48500000000007 489.01500000000004 129.15000000000003 593.82500000000016 1071390000.0000001 94.830000000000013 678.1450000000001 448.03000000000003 230.215 766.11000000000013 850.18500000000006
decision_type=2 2 2 2 2 2 2 2 2 2 2 2 2 2 2 2 2 2 2 2 2 2 2 2 2 2 2 2 2 2
left_child=3 2 7 6 8 13 9 11 14 21 17 -2 19 -4 22 -12 28 -6 27 -8 26 24 -5 -13 -1 -16 -14 -11 -10 -18
right_child=1 -3 5 4 10 -7 12 -9 16 18 15 23 20 -15 25 -17 29 -19 -20 -21 -22 -23 -24 -25 -26 -27 -28 -29 -30 -31
leaf_value=-12.325320507231213 21.956097869873048 102.71336610213571 48.892516962687182 -4.5877069240663113 0.99773803394701754 63.40906317138672 -8.0782134758247128 36.475220108032225 -2.245753680335151 -9.9567187354678204 4.6651122549305795 25.192889633178712 -6.6959070244613956 52.187474060058598 -3.3713887899349899 6.8896328485012051 -0.81504868686199183 2.5680457342238654 -8.7904154888995283 -7.2256261212485171 -5.4615680603753951 -10.818930585043772 -3.9912767799155229 26.351029205322266 -11.543259436624092 -2.6983804384867351 -6.2421980028028621 -9.5300673398104578 -1.5281379741780898 -0.066095184364045656
leaf_weight=21 30 23 24 82 36 25 91 20 27 63 46 20 98 22 78 20 30 42 77 112 42 56 103 26 114 30 77 176 34 24
leaf_count=21 30 23 24 82 36 25 91 20 27 63 46 20 98 22 78 20 30 42 77 112 42 56 103 26 114 30 77 176 34 24
internal_value=-3.13516e-08 46.5597 38.826 -5.98131 -1.40159 55.0249 -8.70838 26.8455 -3.11236 -10.1816 3.44559 24.3114 -6.93005 50.4684 -3.8608 5.33921 -1.20548 1.84329 -9.4349 -7.60782 -6.29601 -11.4169 -4.25564 25.8475 -11.6649 -3.18444 -6.49628 -9.64253 -1.84577 -0.48218
internal_weight=1669 190 167 1479 552 71 927 96 408 507 144 76 420 46 293 66 115 78 316 203 217 191 185 46 135 108 175 239 61 54
internal_count=1669 190 167 1479 552 71 927 96 408 507 144 76 420 46 293 66 115 78 316 203 217 191 185 46 135 108 175 239 61 54
is_linear=0
shrinkage=0.1


Tree=19
num_leaves=31
num_cat=0
split_feature=0 0 2 0 0 0 0 0 0 0 0 0 0 0 0 0 0 0 0 0 0 0 0 0 0 0 0 0 2 0
split_gain=3.76485e+07 6.74138e+06 2.68835e+06 1.49653e+06 376098 348483 191596 48519.9 45715.6 35726.1 31597.1 29964.2 20478.5 6524.29 6467.58 6341.32 4928.17 4489.52 3050.93 2147.58 1553.4 1337.27 1236.85 981.479 884.028 869.465 848.928 836.781 656.045 605.806
threshold=1813.5700000000004 6123.4350000000013 3154.7300000000005 532.6500000000002 902.96500000000015 4562.9750000000013 284.77000000000004 705.49500000000012 4180.4650000000011 1108.8750000000002 143.20500000000001 2485.5250000000001 379.06000000000006 2708.3850000000007 1260.1400000000001 616.60000000000002 796.11500000000012 449.40500000000003 967.30000000000007 228.32500000000002 329.9500000000001 115.81000000000002 662.8850000000001 502.14500000000004 579.94000000000017 422.78500000000003 257.27500000000003 750.25000000000011 1163.3850000000004 850.18500000000006
decision_type=2 2 2 2 2 2 2 2 2 2 2 2 2 2 2 2 2 2 2 2 2 2 2 2 2 2 2 2 2 2
left_child=3 2 11 6 7 8 10 15 -4 18 21 -2 20 -13 28 24 27 25 -6 -12 -8 -1 -17 -19 -5 -14 -21 -9 -11 -18
right_child=1 -3 5 4 9 -7 12 16 -10 14 19 13 17 -15 -16 22 29 23 -20 26 -22 -23 -24 -25 -26 -27 -28 -29 -30 -31
leaf_value=-10.656573109346278 19.760488281250002 93.95616812272506 40.321959563224546 -4.3223249130249028 0.60532745147744826 56.257271525065107 -7.7234571063329298 -2.1102455806732179 46.13532053629558 3.6205260484114938 -9.1481902967180542 22.743971303304036 -6.4027108001708983 24.982589854364811 6.0164940009514494 -3.2571915050347648 -0.73354380710981792 -5.5491752987816225 1.9862079838911695 -8.6444972327447704 -7.0774890270861945 -10.09563559139476 -2.6354887962341311 -4.7848366146995911 -3.8073410644531251 -5.9803936884953428 -8.2249201965332031 -1.3995528981492327 4.3605633392333987 -0.059485663939267401
leaf_weight=85 30 22 31 50 24 30 63 30 24 23 70 30 105 23 24 96 30 84 48 155 91 85 48 21 100 91 70 37 25 24
leaf_count=85 30 22 31 50 24 30 63 30 24 23 70 30 105 23 24 96 30 84 48 155 91 85 48 21 100 91 70 37 25 24
internal_value=-4.37127e-08 41.9038 35.0874 -5.38317 -1.30236 47.5876 -7.86271 -2.83029 42.8587 3.10103 -9.29022 22.2859 -6.40383 23.7154 4.67614 -3.52396 -1.14483 -5.92396 1.52591 -8.66446 -7.34175 -10.3761 -3.04996 -5.39631 -3.979 -6.20663 -8.51396 -1.71777 4.00596 -0.433962
internal_weight=1669 190 168 1479 559 85 920 415 55 144 465 83 455 53 72 294 121 301 72 295 154 170 144 105 150 196 225 67 48 54
internal_count=1669 190 168 1479 559 85 920 415 55 144 465 83 455 53 72 294 121 301 72 295 154 170 144 105 150 196 225 67 48 54
is_linear=0
shrinkage=0.1


Tree=20
num_leaves=31
num_cat=0
split_feature=0 0 2 0 0 0 0 3 0 0 0 1 0 0 0 3 0 0 0 0 0 0 0 2 0 0 1 0 0 1
split_gain=3.04953e+07 5.47264e+06 1.46923e+06 1.21221e+06 291581 168906 77918.9 55096.3 39625.5 32527.2 26192.2 24993.8 12016.6 5587 5008.71 4379.15 3497.4 3407.56 3208.24 2813.64 2771.11 1900.39 856.739 781.147 720.832 602.277 524.165 470.944 451.163 447.775
threshold=1813.5700000000004 5494.380000000001 3154.7300000000005 570.43500000000006 911.96000000000015 326.92000000000007 4180.4650000000011 2763655000.0000005 729.06000000000006 208.45000000000002 1154.7300000000002 2538.5400000000004 433.3300000000001 2708.3850000000007 636.41500000000008 429254500.00000006 812.7750000000002 270.87000000000006 1012.8500000000001 379.06000000000006 502.14500000000004 128.28500000000005 606.43500000000006 91.940000000000012 678.1450000000001 236.33000000000001 766.11000000000013 850.18500000000006 457.30000000000007 1101.7950000000003
decision_type=2 2 2 2 2 2 2 2 2 2 2 2 2 2 2 2 2 2 2 2 2 2 2 2 2 2 2 2 2 2
left_child=3 2 11 5 8 9 -4 -3 14 21 18 -2 19 -13 22 -12 26 25 -6 -7 28 23 -5 -1 -16 -11 -10 -18 -14 -20
right_child=1 7 6 4 10 12 -8 -9 16 17 15 13 20 -15 24 -17 27 -19 29 -21 -22 -23 -24 -25 -26 -27 -28 -29 -30 -31
leaf_value=-10.030000232514881 17.625262887137279 66.867321395874029 36.289763616746477 -3.5832619083170991 1.0038683807684314 -6.3960991295016543 43.129299587673614 74.290010224282739 -1.7683170491998847 -7.9786876269749234 3.8256435820930883 20.441033029556277 -5.2660166695004422 22.484331147567087 -2.7042634540134007 5.5984738328240136 -0.60320579310258227 -7.0905965155297581 1.9790321024981414 -5.6974720382690434 -4.1933086940220425 -8.8014656793503541 -3.140689465969424 -9.3629325581488203 -2.156224513053894 -7.660571162907158 -1.1578599757108934 -0.0088926786556839943 -4.8995817252567839 2.6328067350387574
leaf_weight=21 28 20 31 98 36 98 36 20 22 112 38 32 84 23 72 22 24 91 22 140 42 63 79 107 36 127 39 30 56 20
leaf_count=21 28 20 31 98 36 98 36 20 22 112 38 32 84 23 72 22 24 91 22 140 42 63 79 107 36 127 39 30 56 20
internal_value=-9.4842e-09 37.7134 28.9493 -4.84486 -1.05861 -7.00958 39.9647 70.5787 -2.42602 -8.21249 2.90489 20.0573 -5.51739 21.2955 -3.05826 4.47568 -0.859159 -7.61136 1.69659 -5.98514 -4.90572 -9.25108 -3.38573 -9.47237 -2.52158 -7.80965 -1.37802 -0.273032 -5.11944 2.29035
internal_weight=1669 190 150 1479 538 941 67 40 400 521 138 83 420 55 285 60 115 330 78 238 182 191 177 128 108 239 61 54 140 42
internal_count=1669 190 150 1479 538 941 67 40 400 521 138 83 420 55 285 60 115 330 78 238 182 191 177 128 108 239 61 54 140 42
is_linear=0
shrinkage=0.1


Tree=21
num_leaves=31
num_cat=0
split_feature=0 0 0 0 0 0 0 0 0 0 0 2 0 0 0 0 0 2 0 1 3 2 3 0 2 0 1 2 1 0
split_gain=2.47232e+07 3.65282e+06 2.78372e+06 930332 247738 211795 122562 59940.5 27876.1 22693.2 21666.7 20846.8 12768.6 3977.26 3242.03 2660.76 1926.59 1654.09 1482.61 934.611 876.693 651.114 644.714 585.27 558.981 529.59 521.948 421.368 396.319 271.656
threshold=2884.4650000000006 1725.3100000000002 6123.4350000000013 521.61500000000012 4384.4450000000006 850.18500000000006 284.77000000000004 3963.3800000000006 2394.2950000000005 678.1450000000001 1068.2050000000002 136.89500000000001 389.39500000000004 935.44000000000017 606.43500000000006 758.13000000000011 444.51000000000005 337.78000000000003 228.32500000000002 98.185000000000016 994116500.00000012 1144.6550000000002 321677000.00000006 639.86000000000001 244.14000000000001 573.89000000000021 493.59000000000009 798.34500000000014 124.81500000000001 1012.8500000000001
decision_type=2 2 2 2 2 2 2 2 2 2 2 2 2 2 2 2 2 2 2 2 2 2 2 2 2 2 2 2 2 2
left_child=1 3 4 6 7 9 11 -2 -3 14 13 19 17 -7 25 -11 -14 -8 -13 -1 -10 -12 -23 -16 -20 -5 -18 -17 -21 -15
right_child=2 8 -4 5 -6 10 12 -9 20 15 21 18 16 29 23 27 26 -19 24 28 -22 22 -24 -25 -26 -27 -28 -29 -30 -31
leaf_value=-9.0407358078729541 29.576172574361166 14.574623057047527 77.266511128165519 -3.656937332153321 44.010605907440187 0.091131718749446533 -6.1798259916759681 36.28105010986328 17.871404520670573 -1.7831085650126139 2.6902456656746243 -7.4178230921427417 -5.0093330383300785 1.1857375383377076 -2.8128141919304346 -1.049686441609734 -4.6032633781433105 -5.5750953129359653 -7.0263577190797726 -8.4697497140793576 18.697925821940103 3.6364377975463871 2.898418974876404 -2.4159104433926668 -6.7052012055784793 -3.1992165450211409 -4.1436278424944204 -0.50738619985463829 -8.1379536946614586 1.6615316371122999
leaf_weight=21 24 30 22 35 36 42 84 30 21 60 23 72 147 24 85 38 84 98 134 84 33 29 20 66 91 91 35 23 63 24
leaf_count=21 24 30 22 35 36 42 84 30 21 60 23 72 147 24 85 38 84 98 134 84 33 29 20 66 91 91 35 23 63 24
internal_value=4.45352e-08 -3.26429 45.3795 -4.42096 37.5849 -1.21204 -6.38919 33.3011 17.0187 -2.45278 1.83619 -7.52644 -5.20879 0.8018 -2.95184 -1.31028 -4.76719 -5.8542 -7.02286 -8.4167 18.3765 3.12918 3.33521 -2.63933 -6.89647 -3.32636 -4.46808 -0.845213 -8.32755 1.42363
internal_weight=1669 1557 112 1473 90 560 913 54 84 398 162 465 448 90 277 121 266 182 297 168 54 72 49 151 225 126 119 61 147 48
internal_count=1669 1557 112 1473 90 560 913 54 84 398 162 465 448 90 277 121 266 182 297 168 54 72 49 151 225 126 119 61 147 48
is_linear=0
shrinkage=0.1


Tree=22
num_leaves=31
num_cat=0
split_feature=2 2 0 0 1 1 1 0 0 0 0 0 0 0 1 0 0 0 2 0 0 0 3 0 0 0 0 0 0 0
split_gain=2.00291e+07 3.8213e+06 1.39534e+06 784421 190662 102195 92255.1 90768 24976.9 18325.7 17036 9314.16 9285.99 3414.27 2447.29 1981.76 1903.1 1507.58 1458.33 1277.88 1183.74 1131.25 658.251 624.508 611.405 550.04 539.582 468 303.603 301.986
threshold=1737.2250000000001 5904.6800000000012 3835.7600000000007 532.6500000000002 922.49000000000012 298.14000000000004 4725.0650000000014 2807.2300000000005 705.49500000000012 208.45000000000002 1068.2050000000002 2394.2950000000005 393.72500000000008 619.70000000000016 806.73500000000013 1232.0400000000002 459.38000000000005 4229.8450000000012 936.62000000000012 130.80500000000004 361.88000000000005 257.27500000000003 994116500.00000012 665.25500000000011 94.830000000000013 582.07000000000016 1172.6300000000003 425.75500000000005 502.14500000000004 750.25000000000011
decision_type=2 2 2 2 2 2 2 2 2 2 2 2 2 2 2 2 2 2 2 2 2 2 2 2 2 2 2 2 2 2
left_child=3 2 7 5 8 9 17 11 13 19 18 -2 20 25 29 26 27 -4 -6 24 -7 -11 -13 -15 -1 -5 -12 -14 -18 -10
right_child=1 -3 6 4 10 12 -8 -9 14 21 15 22 16 23 -16 -17 28 -19 -20 -21 -22 -23 -24 -25 -26 -27 -28 -29 -30 -31
leaf_value=-8.1463584173293349 14.123805908203124 68.701395077290741 32.686723963419603 -3.1379673204923932 0.43276704029579255 -5.4372405113057889 40.781851348876955 22.777978483835856 -1.5326318772633871 -6.3668727762006192 2.4287069280942282 16.084264010474794 -4.5928588095165441 -2.3483661293983462 -0.40317989372638596 3.8109978758055592 -3.9433410333127394 33.832771231911401 1.3737333333492279 -7.056002644130162 -4.9084084052544137 -5.9392833881163867 16.830755756519462 -1.8860403537750245 -7.5618289033243489 -2.7480213165283205 3.0992673873901371 -4.2806089060647148 -3.4888823282150998 -1.080089307653493
leaf_weight=21 25 23 24 57 28 94 25 24 30 203 24 21 84 96 60 29 49 22 40 49 77 89 27 42 121 99 24 112 21 29
leaf_count=21 25 23 24 57 28 94 25 24 30 203 24 21 84 96 60 29 49 22 40 49 77 89 27 42 121 99 24 112 21 29
internal_value=8.604e-09 30.4735 25.24 -3.93806 -0.979947 -5.73221 35.8922 17.443 -2.07522 -6.73472 2.1397 15.689 -4.62418 -2.56998 -0.852877 3.15832 -4.25458 33.2348 0.986277 -7.49633 -5.19911 -6.23655 16.5042 -2.20766 -7.64827 -2.8905 2.76399 -4.41443 -3.807 -1.3102
internal_weight=1669 191 168 1478 558 920 71 97 413 483 145 73 437 294 119 77 266 46 68 191 171 292 48 138 142 156 48 196 70 59
internal_count=1669 191 168 1478 558 920 71 97 413 483 145 73 437 294 119 77 266 46 68 191 171 292 48 138 142 156 48 196 70 59
is_linear=0
shrinkage=0.1


Tree=23
num_leaves=31
num_cat=0
split_feature=0 1 0 0 0 0 2 0 0 0 2 0 0 0 0 0 0 2 0 3 0 0 2 0 2 0 0 0 0 2
split_gain=1.62491e+07 2.3925e+06 1.85178e+06 601713 158350 133668 80638.8 36685.5 25961.7 14812.6 13700.8 12388.8 8389.28 2588.89 2333.51 2145.04 1678.6 1522.81 878.973 781.866 741.414 739.356 597.425 458.638 433.901 358.619 331.756 272.747 257.783 238.631
threshold=2884.4650000000006 1754.6450000000002 6123.4350000000013 521.61500000000012 4384.4450000000006 850.18500000000006 280.75500000000005 3963.3800000000006 2193.9150000000004 683.72000000000014 168.51000000000002 1068.2050000000002 379.06000000000006 935.44000000000017 610.78000000000009 2551.0300000000007 437.85500000000008 745.84000000000003 239.89000000000001 358145000.00000006 334.63500000000005 106.87000000000002 1174.0050000000003 575.69500000000005 463.37500000000006 654.36000000000013 221.12500000000003 812.7750000000002 132.15000000000003 91.940000000000012
decision_type=2 2 2 2 2 2 2 2 2 2 2 2 2 2 2 2 2 2 2 2 2 2 2 2 2 2 2 2 2 2
left_child=1 3 4 6 7 9 10 -2 -3 14 21 13 20 -7 23 -10 -14 -11 26 22 -8 29 -13 -5 -18 -16 -12 -19 -23 -1
right_child=2 8 -4 5 -6 11 12 -9 15 17 18 19 16 -15 25 -17 24 27 -20 -21 -22 28 -24 -25 -26 -27 -28 -29 -30 -31
leaf_value=-7.3705919265747077 24.093038368225098 10.409423980712891 62.796624963933766 -2.9314010886258859 35.569281789991592 0.084519891653742116 -5.0530098552435225 29.33843063354492 13.897638498942058 -1.3921874144981647 -6.1354577128092451 2.3399602055549624 -4.1324978692190992 1.1595805744330088 -2.2007333077324764 15.042564254336888 -3.7772157912558697 -0.84428785688736863 -5.4869779744542635 1.9833000602722171 -4.6128378397010898 -6.7322680763576344 3.0703130812872028 -2.5420112254572853 -3.4024010160694953 -1.8622678379217785 -5.7657174057847875 -0.39841227479602981 -6.375663023728591 -6.9418610443940043
leaf_weight=20 24 20 22 43 36 42 71 30 30 58 30 24 154 48 90 36 94 34 133 25 83 92 21 102 46 48 127 23 26 37
leaf_count=20 24 20 22 43 36 42 71 30 30 58 30 24 154 48 90 36 94 34 133 25 83 92 21 102 46 48 127 23 26 37
internal_value=-2.07027e-08 -2.64637 36.7893 -3.59419 30.432 -1.00713 -5.17533 27.0071 13.5657 -1.98846 -6.09779 1.43392 -4.21786 0.657886 -2.37735 14.5221 -3.90467 -1.03144 -5.67613 2.43169 -4.81577 -6.79655 2.68079 -2.65749 -3.65406 -2.08301 -5.83637 -0.664373 -6.65369 -7.09229
internal_weight=1669 1557 112 1471 90 558 913 54 86 398 465 160 448 90 283 66 294 115 290 70 154 175 45 145 140 138 157 57 118 57
internal_count=1669 1557 112 1471 90 558 913 54 86 398 465 160 448 90 283 66 294 115 290 70 154 175 45 145 140 138 157 57 118 57
is_linear=0
shrinkage=0.1


Tree=24
num_leaves=31
num_cat=0
split_feature=0 0 0 0 0 0 0 0 0 0 2 0 0 0 2 0 0 0 1 0 2 3 3 2 0 0 0 2 2 1
split_gain=1.31618e+07 1.94109e+06 1.49994e+06 493114 128780 113462 63563.7 36730.5 13609.3 13584.1 11109.8 9788.54 6475.96 2119.14 1833.87 1481.73 1338.8 863.222 532.719 459.302 418.135 404.019 359.487 483.914 345.936 308.785 276.395 259.52 253.355 229.491
threshold=2884.4650000000006 1725.3100000000002 6123.4350000000013 511.01000000000005 4562.9750000000013 867.26500000000021 284.77000000000004 3963.3800000000006 2394.2950000000005 683.72000000000014 136.89500000000001 1068.2050000000002 375.87000000000006 601.66000000000008 917.94500000000005 773.20500000000004 433.3300000000001 225.75500000000002 98.185000000000016 636.41500000000008 329.60500000000008 994116500.00000012 358145000.00000006 1174.0050000000003 246.90500000000003 573.89000000000021 462.26500000000004 726.25000000000011 803.07000000000005 124.81500000000001
decision_type=2 2 2 2 2 2 2 2 2 2 2 2 2 2 2 2 2 2 2 2 2 2 2 2 2 2 2 2 2 2
left_child=1 3 4 6 7 9 10 -2 -3 13 18 14 20 25 -7 27 -14 -12 -1 -15 -8 -10 23 -13 -19 -5 -18 -11 -17 -20
right_child=2 8 -4 5 -6 11 12 -9 21 15 17 22 16 19 -16 28 26 24 29 -21 -22 -23 -24 -25 -26 -27 -28 -29 -30 -31
leaf_value=-6.6090924944196434 21.683735116322836 10.696189219156901 56.516961882331159 -2.6935043244134813 32.738362967173259 0.12404756976945981 -4.5327320299650493 26.734207577175564 13.009745497930618 -1.3849431598508681 -5.4665030775399046 2.1059642036755881 -3.7569561413356234 -2.0788361455058002 1.0652303904294969 -0.70488619198059221 -3.4320036304240329 -5.1367458262342094 -6.1788615408397867 -1.7481434773176145 -4.1858150839805601 13.570833876638702 1.9511616923190929 2.7632817540849963 -4.8921359393061428 -2.3579347296606139 -3.1411246085653501 -0.98915666898091636 -0.27048342788219454 -5.926378873794798
leaf_weight=21 24 30 22 42 30 37 76 36 21 37 58 24 154 91 47 29 98 141 84 78 64 33 27 21 98 79 49 30 25 63
leaf_count=21 24 30 22 42 30 37 76 36 21 37 58 24 154 91 47 29 98 141 84 78 64 33 27 21 98 79 49 30 25 63
internal_value=-6.05957e-09 -2.38174 33.1104 -3.22491 27.3888 -0.912074 -4.67235 24.714 12.4039 -1.78359 -5.48805 1.38403 -3.81225 -2.15494 0.650662 -0.893565 -3.55091 -5.12043 -6.13796 -1.92621 -4.37414 13.3526 2.23963 2.41271 -5.03645 -2.47441 -3.33504 -1.20773 -0.503774 -6.07065
internal_weight=1669 1557 112 1473 90 567 906 60 84 411 465 156 441 290 84 121 301 297 168 169 140 54 72 45 239 121 147 67 54 147
internal_count=1669 1557 112 1473 90 567 906 60 84 411 465 156 441 290 84 121 301 297 168 169 140 54 72 45 239 121 147 67 54 147
is_linear=0
shrinkage=0.1


Tree=25
num_leaves=31
num_cat=0
split_feature=0 2 0 0 0 0 3 1 0 0 0 0 1 0 0 0 0 0 2 0 0 0 0 0 1 0 1 0 0 0
split_gain=1.0667e+07 2.05719e+06 735184 420041 99320.2 59239.9 57889.6 125954 41801.4 11434.8 11421.9 10156.4 4561.89 4393.56 1746.37 1262.67 1253.21 1177 961.838 822.786 788.627 611.409 344.842 331.502 318.978 259.316 184.297 178.709 171.497 149.091
threshold=1813.5700000000004 5904.6800000000012 3835.7600000000007 570.43500000000006 896.22500000000002 326.92000000000007 2473445000.0000005 4620.6950000000006 2807.2300000000005 729.06000000000006 215.76500000000001 1068.2050000000002 2538.5400000000004 420.09000000000009 630.74500000000012 1232.0400000000002 489.01500000000004 270.87000000000006 917.94500000000005 130.80500000000004 787.93000000000018 370.33500000000009 94.830000000000013 1172.6300000000003 674.19500000000005 593.82500000000016 2758.2350000000006 235.96000000000001 453.80500000000006 1012.8500000000001
decision_type=2 2 2 2 2 2 2 2 2 2 2 2 2 2 2 2 2 2 2 2 2 2 2 2 2 2 2 2 2 2
left_child=3 2 8 5 9 10 7 -4 12 14 19 18 -2 21 25 23 28 27 -6 22 -11 -7 -1 -13 -16 -5 -14 -12 -15 -20
right_child=1 -3 6 4 11 13 -8 -9 -10 20 17 15 26 16 24 -17 -18 -19 29 -21 -22 -23 -24 -25 -26 -27 -28 -29 -30 -31
leaf_value=-5.952164005097889 10.53474054336548 50.343427525395931 23.788800862630211 -2.1686327345231002 0.19099537932872773 -3.8480395235334122 21.59876936674118 33.886453101748508 16.351587533950806 -0.86889409678322937 -4.7076480203745321 1.7582925120989483 12.354369131724042 -3.1630755208119625 -1.6625417766286366 2.8481028443574909 -2.5516594614301411 -4.1806685898330187 0.79162964296340954 -5.1254731110164098 -0.31483055670504223 -3.4755840093147854 -5.5131768975376101 2.2838890592257184 -1.334223229930086 -1.9139399587493582 11.94334732055664 -4.5299625510600077 -2.9508587360382084 1.1485683988441122
leaf_weight=21 28 23 30 68 25 70 20 21 24 49 98 24 24 119 67 30 56 91 25 56 54 119 121 24 53 97 20 134 56 22
leaf_count=21 28 23 30 68 25 70 20 21 24 49 98 24 24 119 67 30 56 91 25 56 54 119 121 24 53 97 20 134 56 22
internal_value=2.46909e-08 22.3049 18.4433 -2.86541 -0.636636 -4.13967 26.1585 27.9467 12.7373 -1.48144 -4.85206 1.5486 11.5326 -3.25596 -1.8078 2.33917 -2.96341 -4.48547 0.692141 -5.45008 -0.578414 -3.61353 -5.5781 2.02109 -1.51753 -2.0189 12.1675 -4.60502 -3.09517 0.958707
internal_weight=1669 190 167 1479 538 941 71 51 96 388 521 150 72 420 285 78 231 323 72 198 103 189 142 48 120 165 44 232 175 47
internal_count=1669 190 167 1479 538 941 71 51 96 388 521 150 72 420 285 78 231 323 72 198 103 189 142 48 120 165 44 232 175 47
is_linear=0
shrinkage=0.1


Tree=26
num_leaves=31
num_cat=0
split_feature=0 0 0 0 1 0 2 0 0 0 0 0 0 0 2 0 2 3 0 0 0 3 2 0 0 0 2 1 0 2
split_gain=8.65158e+06 1.27196e+06 1.00056e+06 323001 80415.6 73843.8 41775.6 25041.2 8153.37 8112.33 7313.01 6898.53 4299.94 1290.9 1043.13 957.185 877.153 649.579 594.364 554.288 531.401 397.123 391.056 227.733 221.426 170.809 165.026 150.144 142.148 140.447
threshold=2884.4650000000006 1725.3100000000002 6123.4350000000013 511.01000000000005 4725.0650000000014 850.18500000000006 280.75500000000005 3963.3800000000006 2394.2950000000005 678.1450000000001 143.20500000000001 1034.2850000000001 389.39500000000004 606.43500000000006 936.62000000000012 750.25000000000011 1118.7400000000002 334997000.00000006 345.52500000000003 444.51000000000005 233.08500000000001 1315450000.0000002 107.86000000000001 573.89000000000021 649.2600000000001 266.98500000000007 798.34500000000014 98.185000000000016 215.76500000000001 886.67500000000007
decision_type=2 2 2 2 2 2 2 2 2 2 2 2 2 2 2 2 2 2 2 2 2 2 2 2 2 2 2 2 2 2
left_child=1 3 4 6 7 9 10 -2 -3 13 22 14 18 23 29 -11 -13 -18 -8 -14 28 -10 27 -5 -15 -22 -17 -1 -12 -7
right_child=2 8 -4 5 -6 11 12 -9 21 15 20 16 19 24 -16 26 17 -19 -20 -21 25 -23 -24 -25 -26 -27 -28 -29 -30 -31
leaf_value=-5.3634190513974147 17.712522554397584 8.716068102518717 45.961581013419419 -2.1753717377072288 26.861173262962929 -0.093361750359718623 -3.6532848694745237 21.798364830017093 10.997053694725038 -1.0910829478943789 -4.5187441212790356 1.255036445600646 -2.9536727632795063 -1.6458518372368567 0.87142444575826328 -0.6387602112509988 2.155210827418736 1.4407994216680526 -3.2910698585903528 -2.6583819014685499 -4.0959871549864078 10.445137804204769 -4.8306987885505928 -1.8938617129902262 -1.3932014218083135 -3.8674919855026975 -0.3082209138766579 -5.0498765672956196 -4.2556324550083708 0.2499418094076894
leaf_weight=21 24 30 22 42 26 26 85 40 32 54 28 35 147 97 24 44 35 20 97 112 148 22 93 91 54 42 23 56 77 22
leaf_count=21 24 30 22 42 26 26 85 40 32 54 28 35 147 97 24 44 35 20 97 112 148 22 93 91 54 42 23 56 77 22
internal_value=-9.60585e-09 -1.93101 26.8445 -2.61355 22.1714 -0.741694 -3.78501 20.2662 10.0379 -1.46346 -4.4463 1.06272 -3.08774 -1.75559 0.333132 -0.777793 1.64638 1.89542 -3.46024 -2.82598 -4.14525 10.7722 -4.96871 -1.98276 -1.5555 -4.04548 -0.525291 -5.13539 -4.3258 0.0639857
internal_weight=1669 1557 112 1473 90 567 906 64 84 405 465 162 441 284 72 121 90 55 182 259 295 54 170 133 151 190 67 77 105 48
internal_count=1669 1557 112 1473 90 567 906 64 84 405 465 162 441 284 72 121 90 55 182 259 295 54 170 133 151 190 67 77 105 48
is_linear=0
shrinkage=0.1


Tree=27
num_leaves=31
num_cat=0
split_feature=2 2 2 0 0 1 2 2 0 0 0 0 0 1 0 0 2 1 1 0 0 0 2 0 3 0 0 2 0 0
split_gain=7.00998e+06 1.36539e+06 488558 271515 65696.3 38683.8 34831.5 8781.24 7061.86 6972.76 6897.72 2563.16 2404.56 2034.16 1029.22 971.931 803.177 643.961 500.134 441.469 406.936 387.206 198.225 188.968 176.533 165.395 160.801 137.03 135.059 134.065
threshold=1737.2250000000001 5904.6800000000012 3408.8800000000006 521.61500000000012 867.26500000000021 4725.0650000000014 312.26500000000004 2632.1050000000005 208.45000000000002 683.72000000000014 1068.2050000000002 415.27000000000004 4180.4650000000011 2538.5400000000004 610.78000000000009 935.44000000000017 745.84000000000003 272.26500000000004 119.40000000000002 1172.6300000000003 370.33500000000009 457.30000000000007 803.07000000000005 575.69500000000005 429254500.00000006 654.36000000000013 132.15000000000003 91.940000000000012 228.32500000000002 1012.8500000000001
decision_type=2 2 2 2 2 2 2 2 2 2 2 2 2 2 2 2 2 2 2 2 2 2 2 2 2 2 2 2 2 2
left_child=3 2 7 6 9 12 8 13 18 14 15 20 -4 -2 23 -6 -11 28 27 -12 -8 -13 -18 -5 -21 -16 -20 -1 -10 -17
right_child=1 -3 5 4 10 -7 11 -9 17 16 19 21 -14 -15 25 29 22 -19 26 24 -22 -23 -24 -25 -26 -27 -28 -29 -30 -31
leaf_value=-4.832602655319941 8.5789829714544901 40.879016461579702 18.45006121826172 -1.9210493730944258 0.081873928465776971 23.934935852050785 -3.1460091908772787 11.276367149353028 -3.8937282484404898 -0.92069758035499483 1.429156517982483 -2.5679077012198315 19.799356651306155 9.7441509985154688 -1.4436504607730443 0.60211278075973196 -0.54885298452879261 -3.4269447984366579 -4.383914243257963 1.8040304747494784 -2.846061031185851 -2.2842559419359478 -0.18628655946254732 -1.6711046321719303 2.1805425095558166 -1.2137928028901419 -4.1328674861363011 -4.5376399085635226 -3.7064681582980685 0.93635885454714307
leaf_weight=21 29 23 25 43 36 25 84 30 49 58 24 154 28 31 90 24 38 87 65 33 98 70 25 102 20 48 42 63 180 24
leaf_count=21 29 23 25 43 36 25 84 30 49 58 24 154 28 31 90 24 38 87 65 33 98 70 25 102 20 48 42 63 180 24
internal_value=1.33084e-08 18.0281 14.8997 -2.32975 -0.606811 20.6924 -3.39598 9.87945 -3.9487 -1.28753 1.10133 -2.70575 19.1629 9.18099 -1.55918 0.474652 -0.652182 -3.65855 -4.42875 1.78498 -2.9845 -2.47927 -0.404977 -1.74523 1.94611 -1.3637 -4.28537 -4.61138 -3.74654 0.769236
internal_weight=1669 191 168 1478 565 78 913 90 507 404 161 406 53 60 283 84 121 316 191 77 182 224 63 145 53 138 107 84 229 48
internal_count=1669 191 168 1478 565 78 913 90 507 404 161 406 53 60 283 84 121 316 191 77 182 224 63 145 53 138 107 84 229 48
is_linear=0
shrinkage=0.1


Tree=28
num_leaves=31
num_cat=0
split_feature=0 1 0 0 0 0 1 0 0 1 0 0 0 3 0 0 2 0 2 3 1 2 0 1 0 1 1 0 0 0
split_gain=5.68992e+06 831929 664939 208936 50641.2 46419.1 27462.3 10953 8317.18 5177.23 5032.95 4433.74 2411.19 1097.16 1025.29 692.793 679.908 652.03 550.196 877.41 496.993 490.047 259.379 231.779 159.606 122.375 122.234 102.334 100.669 79.1437
threshold=2884.4650000000006 1754.6450000000002 6123.4350000000013 511.01000000000005 4384.4450000000006 829.2850000000002 298.14000000000004 3963.3800000000006 2193.9150000000004 146.71500000000003 1012.8500000000001 665.25500000000011 415.27000000000004 1437850000.0000002 2590.9150000000004 601.66000000000008 917.94500000000005 741.43000000000018 1118.7400000000002 321677000.00000006 375.95500000000004 239.03000000000003 103.03500000000001 487.77000000000004 225.75500000000002 576.29500000000007 914.28000000000009 274.13000000000005 630.74500000000012 435.22500000000008
decision_type=2 2 2 2 2 2 2 2 2 2 2 2 2 2 2 2 2 2 2 2 2 2 2 2 2 2 2 2 2 2
left_child=1 3 4 6 7 11 9 -2 -3 22 16 15 20 14 -10 25 26 -13 -12 -20 -8 24 -1 29 -11 -5 -7 -23 -17 -14
right_child=2 8 -4 5 -6 10 12 -9 13 21 18 17 23 -15 -16 28 -18 -19 19 -21 -22 27 -24 -25 -26 -27 -28 -29 -30 -31
leaf_value=-4.2448063078380773 14.431442578633629 6.2074973058700564 37.354541050304071 -1.8117651303609212 20.865751161177954 -0.1751902108391126 -2.8858423875302686 17.29758728027344 8.3564357063987043 -3.5878149197019384 0.97207259630284659 -0.94709962398716907 -2.3680622992577489 7.977837253653485 9.3333051590692442 -1.3761897907981391 0.59043331813812261 -0.49357736772689664 1.7895382538437845 0.95766987644490742 -2.5748257531060115 -3.2634856577669638 -3.9578521456037254 -2.0133848110834758 -3.3857786210378009 -1.5702229814326509 0.1312239091033521 -3.0823289155960083 -1.208870231744015 -2.2343148653323834
leaf_weight=42 24 20 22 27 36 30 98 30 22 58 41 66 77 23 21 79 25 61 32 21 108 89 126 36 120 94 23 48 66 104
leaf_count=42 24 20 22 27 36 30 98 30 22 58 41 66 77 23 21 79 25 61 32 21 108 89 126 36 120 94 23 48 66 104
internal_value=3.72217e-09 -1.56599 21.7701 -2.1249 17.9605 -0.615726 -3.06605 16.0237 7.99397 -3.58128 0.754387 -1.21537 -2.47774 8.53532 8.83351 -1.44746 0.160555 -0.729266 1.24714 1.45993 -2.72279 -3.34219 -4.02959 -2.24512 -3.45161 -1.62412 -0.042218 -3.20001 -1.30003 -2.29121
internal_weight=1669 1557 112 1471 90 565 906 54 86 483 172 393 423 66 43 266 78 127 94 53 206 315 168 217 178 121 53 137 145 181
internal_count=1669 1557 112 1471 90 565 906 54 86 483 172 393 423 66 43 266 78 127 94 53 206 315 168 217 178 121 53 137 145 181
is_linear=0
shrinkage=0.1


Tree=29
num_leaves=31
num_cat=0
split_feature=0 0 0 0 1 0 0 0 1 0 0 2 0 3 2 0 0 2 3 0 0 0 2 1 0 1 0 0 3 2
split_gain=4.60883e+06 674245 538600 171303 42270.1 38859.6 22264.3 12370.9 3998.66 3963.43 3947.51 3659.28 2585.73 1182.19 668.655 608.874 563.643 431.197 533.82 430.119 263.016 253.861 216.763 129.996 127.304 115.812 103.519 88.2028 81.0446 96.3789
threshold=2884.4650000000006 1725.3100000000002 6123.4350000000013 511.01000000000005 4725.0650000000014 834.90500000000009 279.10500000000008 3963.3800000000006 2538.5400000000004 1034.2850000000001 666.57500000000016 136.89500000000001 379.06000000000006 1352035000.0000002 936.62000000000012 593.82500000000016 750.25000000000011 1118.7400000000002 334997000.00000006 425.75500000000005 225.75500000000002 329.9500000000001 91.940000000000012 487.77000000000004 626.1600000000002 914.28000000000009 123.96500000000002 246.90500000000003 17228000.000000004 552.5200000000001
decision_type=2 2 2 2 2 2 2 2 2 2 2 2 2 2 2 2 2 2 2 2 2 2 2 2 2 2 2 2 2 2
left_child=1 3 4 6 7 10 11 -2 -3 14 15 22 21 -10 25 28 -12 -11 -19 -14 -13 -8 -1 -21 -17 -7 -24 -22 -5 -30
right_child=2 8 -4 5 -6 9 12 -9 13 17 16 20 19 -15 -16 24 -18 18 -20 23 27 -23 26 -25 -26 -27 -28 -29 29 -31
leaf_value=-3.927594720749628 12.988298471768699 6.4680930810816157 33.619086872447625 -1.3116285233270555 19.564647887303281 -0.14799422907332579 -2.7111246294789502 15.860108680725098 8.2707493845621745 0.91046012550592426 -0.8225501304548799 -3.2277768233726771 -2.2289759531742384 7.2781969213485729 0.65011311586325371 -1.2647405355116901 -0.40088544274207022 1.594960652760097 0.94732662916183485 -2.0264252922751687 -3.0372781171866343 -2.4644146699171801 -3.6480777719969391 -1.8120463026894464 -1.0911541484651113 0.14672480345703662 -3.4740050351178207 -2.9078337578546432 -1.6955024948120117 -1.4600027870713621
leaf_weight=21 24 34 22 21 26 24 77 40 30 35 66 58 119 20 24 85 61 35 20 132 141 91 93 36 84 30 54 84 25 57
leaf_count=21 24 34 22 21 26 24 77 40 30 35 66 58 119 20 24 85 61 35 20 132 141 91 93 36 84 30 54 84 25 57
internal_value=-7.12303e-10 -1.40939 19.5931 -1.90633 16.1645 -0.543149 -2.75945 14.7832 7.30478 0.732672 -1.08034 -3.25737 -2.26591 7.87373 0.210931 -1.29526 -0.620018 1.18485 1.35946 -2.08352 -3.0379 -2.57749 -3.62707 -1.98049 -1.17846 0.0157386 -3.58413 -2.98895 -1.48691 -1.5318
internal_weight=1669 1557 112 1473 90 567 906 64 84 168 399 451 455 50 78 272 127 90 55 287 283 168 168 168 169 54 147 225 103 82
internal_count=1669 1557 112 1473 90 567 906 64 84 168 399 451 455 50 78 272 127 90 55 287 283 168 168 168 169 54 147 225 103 82
is_linear=0
shrinkage=0.1


Tree=30
num_leaves=31
num_cat=0
split_feature=2 2 0 1 3 1 0 2 0 2 0 0 0 1 0 0 2 2 0 1 0 0 2 0 1 2 1 0 0 3
split_gain=3.73436e+06 738113 264305 143565 52051.2 70093.9 34870.8 17898.1 10780.4 3906.08 3459.15 3159.8 1843.66 1288.37 858.438 487.171 372.098 288.657 263.06 252.999 246.384 170.673 167.433 161.032 138.456 87.106 82.0389 79.5052 61.8829 57.5909
threshold=1737.2250000000001 5904.6800000000012 3835.7600000000007 521.09500000000014 2473445000.0000005 4620.6950000000006 867.26500000000021 280.75500000000005 2807.2300000000005 704.6450000000001 1068.2050000000002 208.45000000000002 387.29000000000002 2538.5400000000004 619.70000000000016 935.44000000000017 2550.5750000000003 110.90000000000002 448.03000000000003 806.73500000000013 334.63500000000005 582.07000000000016 239.03000000000003 1172.6300000000003 674.19500000000005 130.55000000000004 98.185000000000016 416.86000000000007 1012.8500000000001 321677000.00000006
decision_type=2 2 2 2 2 2 2 2 2 2 2 2 2 2 2 2 2 2 2 2 2 2 2 2 2 2 2 2 2 2
left_child=3 2 8 7 5 -4 9 11 13 14 15 17 20 -2 21 -8 -15 26 27 -11 -9 -5 -13 -12 -16 -19 -1 -14 -17 -25
right_child=1 -3 4 6 -6 -7 10 12 -10 19 23 22 18 16 24 28 -18 25 -20 -21 -22 -23 -24 29 -26 -27 -28 -29 -30 -31
leaf_value=-3.5402548199608215 6.3427965854776325 29.959345029748008 14.088150736490887 -1.3839620191756994 11.170605087280274 21.620926557268419 0.062891153308252498 -2.4231403861247323 9.3033382972081498 -0.53272655498981469 1.053993046656251 -2.7689654922485354 -2.0337252616882324 7.4667967001597093 -1.010643862684568 0.43598760763804123 6.8827674031257633 -3.1870086942400255 -1.7289273579915365 -0.20191411027728123 -2.1814943240239071 -1.1824191035646381 -2.6112564134998486 1.4765292644500734 -0.80803901140506462 -2.9973093058611897 -3.3120263811141726 -1.8877936005592346 0.66307583786547186 1.2677122303417752
leaf_weight=21 29 23 30 73 20 21 36 71 24 50 24 155 56 24 96 24 20 70 96 43 104 99 119 25 52 37 63 112 24 28
leaf_count=21 29 23 30 73 20 21 36 71 24 50 24 155 56 24 96 24 20 70 96 43 104 99 119 25 52 37 63 112 24 28
internal_value=-4.19625e-09 13.1583 10.8582 -1.70043 15.4943 17.1899 -0.46359 -2.48577 7.46474 -0.950235 0.784762 -2.91811 -2.02783 6.86027 -1.11603 0.340971 7.20133 -3.23034 -1.86098 -0.37977 -2.27953 -1.26796 -2.70047 1.2689 -0.939458 -3.12141 -3.36908 -1.93644 0.549532 1.36621
internal_weight=1669 191 168 1478 71 51 574 904 97 413 161 465 439 73 320 84 44 191 264 93 175 172 274 77 148 107 84 168 48 53
internal_count=1669 191 168 1478 71 51 574 904 97 413 161 465 439 73 320 84 44 191 264 93 175 172 274 77 148 107 84 168 48 53
is_linear=0
shrinkage=0.1


Tree=31
num_leaves=31
num_cat=0
split_feature=0 1 0 0 0 0 0 3 0 0 0 2 0 3 0 0 0 2 0 0 3 0 0 2 0 1 0 0 0 1
split_gain=3.0301e+06 441475 359548 110868 24872.8 24316.5 14223.6 8440.15 4288.69 2566.89 2434.49 2397.86 1637.65 772.719 611.929 388.906 386.05 382.329 309.717 288.487 323.131 181.746 152.151 137.804 100.321 78.9675 73.4491 68.841 65.5526 63.5358
threshold=2884.4650000000006 1754.6450000000002 6123.4350000000013 502.14500000000004 829.2850000000002 4562.9750000000013 279.10500000000008 1698520000.0000002 2193.9150000000004 1012.8500000000001 662.8850000000001 136.89500000000001 374.48500000000007 1437850000.0000002 2590.9150000000004 588.84000000000003 736.30500000000018 917.94500000000005 422.78500000000003 1068.2050000000002 393744500.00000006 225.75500000000002 94.830000000000013 1174.0050000000003 326.92000000000007 640.32500000000016 778.60500000000013 123.96500000000002 457.30000000000007 914.28000000000009
decision_type=2 2 2 2 2 2 2 2 2 2 2 2 2 2 2 2 2 2 2 2 2 2 2 2 2 2 2 2 2 2
left_child=1 3 5 6 10 7 11 -2 -3 17 15 22 24 14 -10 -5 -12 29 -14 -11 23 -13 -1 -21 -8 -17 -18 -24 -20 -6
right_child=2 8 -4 4 9 -7 12 -9 13 19 16 21 18 -15 -16 25 26 -19 28 20 -22 -23 27 -25 -26 -27 -28 -29 -30 -31
leaf_value=-3.1899216152372816 13.149449726990586 4.5384943005442624 27.346646230871031 -1.2265791800557351 -0.12795969612896443 15.410063578287762 -2.2035638945443288 10.776049727009189 6.0917452898892499 0.59676825205485029 -0.71608365756092651 -2.6190475874933705 -1.8292658048962789 5.7422111459400345 6.8464265777951203 -1.0295541054861885 -0.46961114601911724 0.4423231685161591 -1.6656330397149095 0.98147013127803806 0.68117496371269226 -2.4205202051798502 -2.9543114959552725 1.3206403167351433 -2.0381545921424769 -0.88863073885440835 -0.25905434553821882 -2.812358743173105 -1.5344291823250908 0.092953936659488021
leaf_weight=21 29 20 22 98 30 30 70 31 22 24 66 58 126 23 21 105 37 25 119 25 22 225 93 23 77 64 30 54 56 23
leaf_count=21 29 20 22 98 30 30 70 31 22 24 66 58 126 23 21 105 37 25 119 25 22 225 93 23 77 64 30 54 56 23
internal_value=-3.31994e-09 -1.14279 15.8868 -1.54993 -0.46156 13.0855 -2.24243 11.9232 5.82133 0.544052 -0.893973 -2.63887 -1.84333 6.21006 6.46031 -1.06809 -0.544427 0.119964 -1.70972 0.895955 0.998533 -2.46121 -2.93814 1.14399 -2.11692 -0.976187 -0.375332 -2.90217 -1.62365 -0.0320915
internal_weight=1669 1557 112 1471 572 90 899 60 86 172 400 451 448 66 43 267 133 78 301 94 70 283 168 48 147 169 67 147 175 53
internal_count=1669 1557 112 1471 572 90 899 60 86 172 400 451 448 66 43 267 133 78 301 94 70 283 168 48 147 169 67 147 175 53
is_linear=0
shrinkage=0.1


Tree=32
num_leaves=31
num_cat=0
split_feature=0 0 2 0 3 1 0 3 0 0 0 0 0 0 2 0 2 0 0 2 2 3 1 2 2 1 1 0 0 1
split_gain=2.45438e+06 357735 291435 90899.2 30495.5 82231.1 20818.7 13614.3 11521.2 2236.96 1975.81 1963.1 1954.2 1327.12 580.407 340.419 309.687 297.015 272.568 233.111 213.661 163.984 131.566 96.3115 77.6464 61.3633 60.7039 59.4938 58.9883 51.464
threshold=2884.4650000000006 1725.3100000000002 5904.6800000000012 502.14500000000004 2473445000.0000005 4620.6950000000006 829.2850000000002 1658230000.0000002 279.10500000000008 1012.8500000000001 658.98500000000001 2394.2950000000005 215.76500000000001 375.87000000000006 2550.5750000000003 736.30500000000018 917.94500000000005 593.82500000000016 1068.2050000000002 421.85000000000008 113.97000000000001 358145000.00000006 1207.6050000000002 329.60500000000008 236.62000000000003 98.185000000000016 576.29500000000007 778.60500000000013 132.15000000000003 914.28000000000009
decision_type=2 2 2 2 2 2 2 2 2 2 2 2 2 2 2 2 2 2 2 2 2 2 2 2 2 2 2 2 2 2
left_child=1 3 4 8 5 7 10 -2 12 16 17 -3 20 23 -13 -12 29 26 -11 -15 25 22 -20 -10 -14 -1 -5 -17 -22 -8
right_child=2 11 -4 6 -6 -7 9 -9 13 18 15 14 24 19 -16 27 -18 -19 21 -21 28 -23 -24 -25 -26 -27 -28 -29 -30 -31
leaf_value=-2.8728468849545434 11.907428125234752 4.6703406557440763 24.332542060769125 -1.2028190093881945 8.4745928851040926 17.950659052530924 -0.11516372730334601 8.4370631980896 -1.9634974326027763 0.53709143400192261 -0.65099089344342553 5.9951731681823732 -2.2430369747218801 -1.6291068623031397 5.3390319244219704 -0.4226500298123102 0.39809084355831148 -0.87571802186650149 0.89018995149433611 -1.450682708544609 -2.5814523955522959 0.7313960972759459 1.234297001734376 -1.8030295252799988 -2.1320441173906088 -2.6779448209490098 -1.0420662277623227 -0.23314890258635088 -2.4321632424990338 0.083658543050937034
leaf_weight=21 26 30 23 34 22 21 30 20 90 24 72 28 134 138 26 37 25 151 25 156 59 27 20 64 119 70 76 30 48 23
leaf_count=21 26 30 23 34 22 21 30 20 90 24 72 28 134 138 26 37 25 151 25 156 59 27 20 64 119 70 76 30 48 23
internal_value=1.85695e-09 -1.02851 14.2981 -1.39048 11.7049 12.7656 -0.407369 10.3986 -2.01818 0.505748 -0.804575 5.31893 -2.37498 -1.659 5.67925 -0.500028 0.107968 -0.966767 0.828944 -1.53443 -2.61028 0.926228 1.04313 -1.89681 -2.19083 -2.72292 -1.09175 -0.337799 -2.51448 -0.0288824
internal_weight=1669 1557 112 1473 89 67 574 46 899 174 400 84 451 448 54 139 78 261 96 294 198 72 45 154 253 91 110 67 107 53
internal_count=1669 1557 112 1473 89 67 574 46 899 174 400 84 451 448 54 139 78 261 96 294 198 72 45 154 253 91 110 67 107 53
is_linear=0
shrinkage=0.1


Tree=33
num_leaves=31
num_cat=0
split_feature=0 0 0 0 1 2 3 2 3 0 0 0 3 0 0 1 3 2 0 0 2 2 1 0 3 1 2 2 1 0
split_gain=1.99002e+06 396963 128289 76884.9 17331.1 11064.3 10420.9 10582.6 6306.3 7626.4 2087.73 2076.34 1741.91 1583.9 893.446 336.187 283.93 815.768 270.37 203.634 177.922 174.206 147.39 108.694 87.1902 54.3628 53.2652 47.7364 43.9621 37.727
threshold=1813.5700000000004 5917.630000000001 3835.7600000000007 570.43500000000006 914.28000000000009 315.52500000000003 1698520000.0000002 2664.4950000000003 2023725000.0000002 4384.4450000000006 729.06000000000006 215.76500000000001 1177895000.0000002 1068.2050000000002 416.86000000000007 642.61500000000012 520838000.00000006 1200.3500000000001 477.72000000000008 266.98500000000007 917.94500000000005 110.90000000000002 806.73500000000013 370.33500000000009 141923500.00000003 589.6450000000001 128.68000000000004 91.940000000000012 699.60500000000013 235.16000000000005
decision_type=2 2 2 2 2 2 2 2 2 2 2 2 2 2 2 2 2 2 2 2 2 2 2 2 2 2 2 2 2 2
left_child=3 2 6 5 10 11 7 12 9 -4 15 21 -2 20 23 25 17 -15 -16 29 -6 27 -12 -7 -22 -5 -23 -1 -17 -13
right_child=1 -3 8 4 13 14 -8 -9 -10 -11 22 19 -14 16 18 28 -18 -19 -20 -21 24 26 -24 -25 -26 -27 -28 -29 -30 -31
leaf_value=-2.5890953608921596 4.7105748345774989 20.62855614934649 10.534938936233521 -0.97336456836798257 0.084378067748966057 -1.6646677884188568 3.3694261050224306 7.8445753165653773 9.9152169741117042 13.296533312797548 -0.37907896241609085 -2.0369895662580215 5.8453436136245731 0.75365575669954232 -1.3483612725394114 -0.68833175897598275 0.60989046275615699 1.5265761733055117 -1.1158231462751116 -1.8100211499811529 0.24823171332478525 -2.3302366589742998 -0.13689301709334056 -1.5082456080118816 0.52370902477608372 -0.83850809112191205 -2.1927632303798901 -2.4150010911245197 -0.55355932186631596 -1.9535553334364253
leaf_weight=21 31 28 20 39 27 77 20 21 26 20 47 91 24 36 175 84 20 22 70 91 20 63 54 105 27 128 51 63 34 134
leaf_count=21 31 28 20 39 27 77 20 21 26 20 47 91 24 36 175 84 20 22 70 91 20 63 54 105 27 128 51 63 34 134
internal_value=-7.6091e-09 9.63403 7.73374 -1.23764 -0.284095 -1.78281 5.40042 5.9349 11.1277 11.9157 -0.640259 -2.09534 5.20575 0.620376 -1.40659 -0.778706 0.934796 1.04683 -1.28192 -1.93625 0.288959 -2.34925 -0.249593 -1.57442 0.406485 -0.870002 -2.26874 -2.45852 -0.649499 -1.9873
internal_weight=1669 190 162 1479 538 941 96 76 66 40 386 514 55 152 427 285 78 58 245 316 74 198 101 182 47 167 114 84 118 225
internal_count=1669 190 162 1479 538 941 96 76 66 40 386 514 55 152 427 285 78 58 245 316 74 198 101 182 47 167 114 84 118 225
is_linear=0
shrinkage=0.1


Tree=34
num_leaves=31
num_cat=0
split_feature=0 1 0 1 0 1 1 0 0 0 3 0 0 1 0 3 0 0 0 2 2 1 1 2 0 0 0 2 0 0
split_gain=1.61736e+06 233125 201603 58802.2 12899.2 10048.9 7721.21 5112.97 2093.83 1479.51 1408.35 1312.24 1256.4 724.74 682.253 517.94 211.767 182.259 168.098 254.412 159.332 143.185 122.788 102.399 98.4296 90.1472 59.828 38.4569 36.6378 31.5819
threshold=2884.4650000000006 1754.6450000000002 6123.4350000000013 521.09500000000014 829.2850000000002 5210.9750000000013 298.14000000000004 3963.3800000000006 2193.9150000000004 215.76500000000001 1942715000.0000002 998.75000000000011 665.25500000000011 2770.0450000000005 409.50500000000005 1230715000.0000002 601.66000000000008 741.43000000000018 1068.2050000000002 1212.5950000000003 886.67500000000007 130.35500000000005 375.95500000000004 244.14000000000001 1172.6300000000003 473.75500000000005 94.830000000000013 640.16500000000008 573.89000000000021 778.60500000000013
decision_type=2 2 2 2 2 2 2 2 2 2 2 2 2 2 2 2 2 2 2 2 2 2 2 2 2 2 2 2 2 2
left_child=1 3 5 6 12 7 9 -2 -3 21 -9 20 16 15 22 -10 28 -14 -13 24 -6 26 -8 -11 -20 -16 -1 -18 -5 -19
right_child=2 8 -4 4 11 -7 14 10 13 23 -12 18 17 -15 25 -17 27 29 19 -21 -22 -23 -24 -25 -26 -27 -28 -29 -30 -31
leaf_value=-2.3326918829055061 7.7610790173212694 3.3293969876319167 20.187953654202548 -0.93960265354676675 -0.079835926459447759 11.485942373275757 -1.5358111296381269 9.031848470369976 5.0101714317615222 -1.8056400071490897 10.139536952972414 0.4266923412680626 -0.50327566286379644 3.9948157691955566 -1.2311993974320432 4.3332829713821415 -0.71494168607812192 -0.33428140810180096 0.70131194181740286 0.43709325349849204 0.21779844515025615 -2.0018315242396461 -1.375836349040904 -1.6823008721027901 0.99080773643825371 -1.0675467630711999 -2.1477934810093475 -0.58932771605830048 -0.82574096661579766 -0.19035427500804267
leaf_weight=21 24 20 22 44 37 20 98 24 26 176 22 30 66 20 188 20 114 31 24 23 35 72 94 109 23 41 105 31 79 30
leaf_count=21 24 20 22 44 37 20 98 24 26 176 22 30 66 20 188 20 114 31 24 23 35 72 94 109 23 41 105 31 79 30
internal_value=-2.74274e-09 -0.834909 11.6067 -1.13077 -0.332443 9.5091 -1.6315 8.94429 4.22575 -1.90435 9.56161 0.390366 -0.647185 4.49737 -1.31846 4.71587 -0.769957 -0.388107 0.62474 0.709617 0.0648474 -2.11433 -1.45749 -1.75847 0.84298 -1.2019 -2.17861 -0.688086 -0.866472 -0.263498
internal_weight=1669 1557 112 1471 567 90 904 70 86 483 46 172 395 66 421 46 268 127 100 70 72 198 192 285 47 229 126 145 123 61
internal_count=1669 1557 112 1471 567 90 904 70 86 483 46 172 395 66 421 46 268 127 100 70 72 198 192 285 47 229 126 145 123 61
is_linear=0
shrinkage=0.1


Tree=35
num_leaves=31
num_cat=0
split_feature=2 2 0 1 0 3 0 0 0 1 2 0 3 3 2 0 3 2 1 2 0 2 1 0 0 2 3 0 2 1
split_gain=1.31066e+06 205131 154214 49619.9 11626.2 7470.17 17889.5 6265.76 1343.3 1021.71 975.004 807.891 736.088 1504.63 259.294 227.192 198.505 821.436 164.306 154.153 94.8672 86.3753 66.4319 54.8497 48.8453 45.2216 43.0421 42.8866 39.6188 37.9443
threshold=3154.7300000000005 1737.2250000000001 6123.4350000000013 521.09500000000014 829.2850000000002 2140935000.0000002 4384.4450000000006 274.13000000000005 1034.2850000000001 705.11500000000012 132.86000000000004 374.48500000000007 1551080000.0000002 1177895000.0000002 936.62000000000012 608.04500000000019 520838000.00000006 1118.7400000000002 434.85500000000008 1200.3500000000001 773.20500000000004 223.92500000000004 98.185000000000016 326.92000000000007 573.89000000000021 886.67500000000007 28900450.000000004 473.75500000000005 726.25000000000011 642.61500000000012
decision_type=2 2 2 2 2 2 2 2 2 2 2 2 2 2 2 2 2 2 2 2 2 2 2 2 2 2 2 2 2 2
left_child=1 3 5 7 9 6 -2 10 14 15 22 23 13 -3 25 24 17 -10 -13 -19 28 26 -1 -9 -5 -6 -12 -20 -11 -17
right_child=2 12 -4 4 8 -7 -8 11 16 20 21 18 -14 -15 -16 29 -18 19 27 -21 -22 -23 -24 -25 -26 -27 -28 -29 -30 -31
leaf_value=-2.1019309588841031 8.0280478494507932 3.8508076661672348 18.169158770821312 -0.85909318757611652 -0.079453620010692838 7.4379911014011926 11.667119400067763 -1.4508844665118628 0.32701408896715412 -0.45075389429142598 -1.6720678685004253 -1.1959900630844964 3.5439904320240019 4.8446157855987551 0.37551818067052717 -0.6504220991423636 0.36672171279788018 0.82022522739742121 -1.0791326302142183 1.1949636453673953 -0.18217656430270937 -1.5916232434948485 -1.9111971718924388 -1.3340381201211509 -0.73105037581060361 0.10070096681063825 -1.8425738525390625 -0.96079209257916709 -0.29702608413994314 -0.54936187575845163
leaf_weight=21 35 39 22 43 38 28 22 84 31 38 57 144 20 25 24 66 20 23 121 21 36 199 140 77 97 22 20 41 30 85
leaf_count=21 35 39 22 43 38 28 22 84 31 38 57 144 20 25 24 66 20 23 121 21 36 199 140 77 97 22 20 41 30 85
internal_value=4.9874e-09 -0.733447 10.7069 -1.00664 -0.279502 8.77555 9.4326 -1.46835 0.38905 -0.582467 -1.7405 -1.21367 4.07353 4.23901 0.0977217 -0.678613 0.646645 0.721291 -1.11827 0.999078 -0.31344 -1.62642 -1.93608 -1.395 -0.770378 -0.0133969 -1.71636 -1.04918 -0.382933 -0.593534
internal_weight=1669 1562 107 1478 574 85 57 904 179 395 437 467 84 64 84 291 95 75 306 44 104 276 161 161 140 60 77 162 68 151
internal_count=1669 1562 107 1478 574 85 57 904 179 395 437 467 84 64 84 291 95 75 306 44 104 276 161 161 140 60 77 162 68 151
is_linear=0
shrinkage=0.1


Tree=36
num_leaves=31
num_cat=0
split_feature=0 2 0 0 0 1 0 0 3 0 0 2 0 1 1 2 3 2 2 2 1 2 0 1 2 1 2 0 3 2
split_gain=1.06248e+06 153132 132048 40199.6 9523.74 7011.32 4977.45 3347.72 1424.94 1088.07 855.574 792.828 633.813 479.659 724.582 210.028 160.789 665.363 159.409 124.864 123.832 91.4487 83.6583 74.5219 51.6475 40.7228 36.6295 35.9366 33.3031 38.8176
threshold=2884.4650000000006 1737.2250000000001 6123.4350000000013 502.14500000000004 829.2850000000002 5210.9750000000013 274.13000000000005 3963.3800000000006 1942715000.0000002 1034.2850000000001 656.32500000000016 130.55000000000004 387.29000000000002 2770.0450000000005 2538.5400000000004 936.62000000000012 520838000.00000006 1118.7400000000002 704.6450000000001 1200.3500000000001 589.6450000000001 344.02000000000004 223.14000000000001 443.21000000000009 91.940000000000012 766.11000000000013 886.67500000000007 616.60000000000002 70763400.000000015 559.55000000000007
decision_type=2 2 2 2 2 2 2 2 2 2 2 2 2 2 2 2 2 2 2 2 2 2 2 2 2 2 2 2 2 2
left_child=1 3 5 6 10 7 11 -2 -9 15 20 24 21 14 -3 26 17 -11 -12 -19 28 -8 -13 -14 -1 -20 -6 -22 29 -5
right_child=2 13 -4 4 9 -7 12 8 -10 16 18 22 23 -15 -16 -17 -18 19 25 -21 27 -23 -24 -25 -26 -27 -28 -29 -30 -31
leaf_value=-1.8947866212754023 6.2805012758821253 3.3998906808680505 16.352242461117832 -0.8674821700368609 -0.071508255983261687 9.3609469413757331 -1.2843613447762339 7.2045564353466034 8.3187502080743965 0.29431268510318576 -0.4435283055016096 -1.5741806449561284 -1.0483791626565826 3.1896436476707457 4.1008781425158185 0.33796635419130328 0.33004951954819267 0.73820269729780119 -0.33509177680198965 1.0754672515959969 -0.63444448885164773 -1.1480840001787458 -1.4394884147644043 -0.94096294606433206 -1.7260344455116674 -0.1807961078286171 0.090630864893848251 -0.54466158321925573 -0.63389727234840398 -0.70096844519887658
leaf_weight=21 24 29 22 28 38 20 119 24 22 31 69 58 123 20 30 24 20 23 26 21 95 84 225 136 133 50 22 84 20 28
leaf_count=21 24 29 22 28 38 20 119 24 22 31 69 58 123 20 30 24 20 23 26 21 95 84 225 136 133 50 22 84 20 28
internal_value=-3.69817e-09 -0.6767 9.40734 -0.90598 -0.256128 7.7097 -1.32452 7.23791 7.73743 0.350145 -0.527435 -1.56645 -1.09567 3.61286 3.75632 0.0879495 0.581981 0.649162 -0.333487 0.89917 -0.637719 -1.22797 -1.46709 -0.991975 -1.74905 -0.233581 -0.0120572 -0.592312 -0.744665 -0.784225
internal_weight=1669 1557 112 1478 579 90 899 70 46 179 400 437 462 79 59 84 95 75 145 44 255 203 283 259 154 76 60 179 76 56
internal_count=1669 1557 112 1478 579 90 899 70 46 179 400 437 462 79 59 84 95 75 145 44 255 203 283 259 154 76 60 179 76 56
is_linear=0
shrinkage=0.1


Tree=37
num_leaves=31
num_cat=0
split_feature=2 1 2 0 3 2 0 3 1 3 3 2 0 0 0 0 2 2 2 1 0 2 3 1 0 0 1 1 3 2
split_gain=861568 134190 101846 31117.6 14316.7 23637.7 6805.53 6525.28 4043.16 1420.9 910.104 1138.92 770.858 735.554 632.175 379.678 130.841 230.63 121.067 94.8261 89.3029 88.4854 87.3282 77.9125 55.3086 35.9569 27.6275 27.2074 26.9755 31.4422
threshold=3154.7300000000005 1754.6450000000002 5904.6800000000012 502.14500000000004 2375115000.0000005 4377.0250000000005 822.85000000000002 1515030000.0000002 294.56500000000005 911325500.00000012 1551080000.0000002 2482.6900000000005 215.76500000000001 982.81500000000017 654.36000000000013 415.27000000000004 1212.5950000000003 1118.7400000000002 704.6450000000001 589.6450000000001 115.81000000000002 886.67500000000007 189953000.00000003 375.95500000000004 246.90500000000003 451.39500000000004 766.11000000000013 626.49500000000012 70763400.000000015 559.55000000000007
decision_type=2 2 2 2 2 2 2 2 2 2 2 2 2 2 2 2 2 2 2 2 2 2 2 2 2 2 2 2 2 2
left_child=1 3 4 8 5 7 14 -2 12 -3 11 -11 20 21 19 23 17 22 -16 28 -1 -8 -15 -10 -14 -17 -20 -21 29 -5
right_child=2 9 -4 6 -6 -7 13 -9 15 10 -12 -13 24 16 18 25 -18 -19 26 27 -22 -23 -24 -25 -26 -27 -28 -29 -30 -31
